Peptide,PCA OneHot C1,PCA OneHot C2,UMAP OneHot C1,UMAP OneHot C2,PCA Fingerprint C1,PCA Fingerprint C2,UMAP Fingerprint C1,UMAP Fingerprint C2,PCA PhysProperties C1,PCA PhysProperties C2,UMAP PhysProperties C1,UMAP PhysProperties C2,PCA NGrams C1,PCA NGrams C2,UMAP NGrams C1,UMAP NGrams C2,PCA ESM2 C1,PCA ESM2 C2,UMAP ESM2 C1,UMAP ESM2 C2
VWRDAEDYATFP,0.9266123548841102,1.5847801545731506,10.772375,6.618759,-4.018474079179733,5.096385209825724,4.790497,8.464211,2.4099004400139203,8.26620286728279,2.2484674,9.469903,0.8917054864396659,-0.39989052736227626,4.5315204,3.7673564,2.3808943109823018,4.753332407374289,6.3813863,7.305295
TPDWDGPDYAAH,0.9762387188120489,-1.2179075836136664,4.1871233,-6.678128,-3.0729517084205584,-4.850573237174281,0.22308096,3.132749,3.8130813178842136,-6.271323539243332,-1.7336788,2.4005425,0.8657324652533858,-1.5973413932083227,1.0774215,5.710805,2.976448334035533,-3.497436635339635,1.7626098,-1.2591251
EMDAPDYASWEP,-0.08581740698209323,0.3003312143290662,15.983954,-3.8121004,0.1829046037806643,1.818713987680583,10.668587,6.7493143,-3.233714027967914,0.25090467580319786,6.787501,-3.3983347,0.4488989572704452,-1.780485200790586,0.7917837,6.1775146,-0.6853697483459176,0.7602798453015909,8.511635,-1.9036019
SVEDDAPDYADF,1.4997190046409175,-0.7893719656742594,3.0529213,-5.7418914,-4.827253963589925,-3.8245610988500376,-0.03807082,2.9956534,6.379589526561103,-3.1083608325356824,-0.89081997,2.6839669,1.0978013901419224,-1.8656445546969098,0.8155183,6.23681,4.977170434811988,-2.0168944013525776,2.0230594,-1.0305957
MMDMDLQDYAGL,1.3476847004357793,-1.132602102323519,5.24484,-6.7443666,-3.9918488356310746,-4.178428676431599,1.107279,2.0885136,6.48562534362016,-5.0043148822747066,-1.6084665,3.0334203,0.6887881291432221,0.756400857800746,5.0131154,9.638347,4.079283732248338,-3.729688110105187,2.9914093,-2.1502752
YEQMHDVEDYSQ,-1.092508510550032,-0.09554714289066774,15.8613825,-11.238109,3.1700957071743976,-1.1191171716470178,8.229712,2.8221338,-5.52493778987169,-3.78797801150891,8.586764,0.0616275,-1.6247205567133294,0.36040546063184753,3.8130207,2.7680173,-3.131578478981762,-0.8810745955326332,12.706155,0.37155157
EFDKHDYAAYPR,-0.4749750102008611,0.4733869327894201,15.96054,-2.7169337,1.497612736138205,1.5778331919359019,10.031069,7.559645,-4.049553886636824,0.9545960871987711,6.242549,-2.864914,0.6830724381883904,1.07089999371959,7.623496,6.718302,-1.5660572916947972,1.2138943729189926,8.275815,-1.2622459
PMFWDVPDYSGM,1.2087666070373313,-0.9750058738418877,3.565559,-5.4407177,-3.510182663696058,-4.133352222016829,0.20337915,3.160537,6.27282865557089,-6.350335152819068,-1.6128035,2.1957028,-2.2790542115038352,-2.543362308711685,-0.1892234,6.8738546,3.635841427515128,-3.590077818893599,1.7295814,-1.5880635
WKFRDDKMDYAD,-1.0757155749192995,-0.5751843615461618,18.560354,-12.099581,3.86335898172027,-2.0494227621809595,7.611489,2.538145,-3.280634560729978,0.6180321585167614,9.653906,0.77243555,0.7319235127757167,-0.33660760062163125,4.598543,5.4748974,-3.464743093065376,-1.7211282301914401,13.566585,-0.32384858
VDDLRYASSNQL,0.5736310981890298,0.08722129948859488,3.2433326,-0.14514232,-1.9609941873559003,0.5045663207429324,3.7270806,2.2985542,3.760934172773227,-2.5214306053328253,1.7435185,3.3913667,-0.8079590601585424,0.1442629746092406,2.0247705,8.201253,1.7461820245109703,0.41249088563662617,3.2806787,1.3758193
VGQMWDMPDYAG,-1.3458125077270626,-0.19563571938394514,17.180178,-12.314301,4.979698506190502,-0.5307771697528594,9.005342,1.7131706,-7.311746646047154,0.26111517199710227,9.15598,0.08199115,0.21112366024592152,-1.628646818937009,-0.5789959,5.386111,-4.23853847765222,-0.7869153890766152,12.995814,0.6024439
ALFDLEDYAKLN,0.8807943063885548,1.703229507984342,10.451236,7.2296124,-2.8279537639480954,5.247068190225556,4.682968,8.76941,1.3618274699448578,9.610800474605519,1.6902598,9.541237,0.8867913854675726,1.4419237633958832,5.779214,3.7460313,2.133284192284758,5.567348406627527,6.142415,7.391046
PDNRLDLKDYAF,-1.2591189761988204,-0.13088289413663554,18.050234,-12.179155,4.504461164417289,-0.3129741908114685,9.426015,3.9448633,-6.051597143730261,-0.15825887627523513,8.322101,1.5527616,0.10321892665258815,0.19187644158505973,3.4928162,7.8870096,-4.413197163156942,-0.5844256855963229,12.845207,-0.19095394
WEWSTDPRDYSQ,-0.9616240509982285,-0.1352117193144937,16.747269,-10.732777,3.0176658142611346,-1.0117805783202103,7.819126,2.258169,-3.993943739514006,-1.6181812036446328,8.973468,0.44274992,-2.25671476060276,-0.8642026493328087,1.8494561,7.6068244,-2.706390433744141,-0.4206178336547002,12.36141,0.40784508
VKWNDVMDYADP,1.3592742751197628,-1.1700926327063708,3.0278304,-6.297374,-4.804460602223499,-3.5002719442706205,1.0812452,2.926095,7.366591229828323,-4.915022275983796,-0.5719238,2.3286266,0.6884577000770662,-1.34001374283895,4.277638,5.43357,4.029425027681497,-3.6465833228819093,2.6928277,-1.2722569
MQYLPDLMDYDS,-1.0485215944994484,-0.0842876929983457,17.543589,-12.093467,3.7583969775516386,0.2710507630944599,8.485907,3.7339365,-6.310843129631002,-1.8999919969361003,8.635437,0.046175823,-1.2080645580720197,-0.4179025262094291,4.9193435,5.8860044,-3.667450842737831,-0.9099657369988434,11.989796,-0.7774437
YWMAHDTQDYAS,-1.2919696754260503,-0.19617165757536287,18.885489,-13.472292,4.302368864785189,-1.3688891776041514,9.40137,2.7304373,-5.039676574930146,-0.329150489611741,9.392721,0.93130887,0.41689560896080496,0.6702269387797691,4.1022077,9.417974,-3.5766284181552024,-0.511556561050007,12.996687,0.16506962
FSDGPDYASFAD,-0.5220529133123024,0.1663791351788105,15.4791355,-3.825136,2.5792193899106635,1.0742693874111897,10.883171,6.582932,-3.3773093632951445,0.34153165272204417,6.593502,-3.0488458,0.03525582864692677,-1.4807721102662827,1.0318658,5.753638,-2.4419148894497607,0.16435384151145138,8.546466,-2.0102956
LPGGFLDWEDYA,0.6211115315388323,0.7649799935250169,10.162077,2.6370237,-1.8306419399806486,2.2483087470742573,6.2154036,6.915922,2.8099327090601953,7.007632526690143,2.8994973,7.671905,0.12454998356868348,0.2778190607886169,4.1567855,3.8094354,1.7071853508849768,3.2336883336449582,8.411317,5.241704
YNMQRDLKDYAH,-1.3357607568502903,-0.2182329120856574,17.798187,-12.6022415,4.687639577444403,-0.5763368059017067,9.200406,2.9184885,-4.653601602675008,-3.700239395307433,7.8321104,0.41291586,0.19734627215493944,1.062977041372327,3.4594095,7.9191194,-4.227617324760248,-1.054482374405747,13.202034,-0.21040592
MKALDQHDYAYW,1.3313622363966322,-1.0011788487167403,4.408856,-6.3756275,-4.468641544565749,-2.8666589679988044,0.31864744,1.6407008,5.608879932135189,-5.311057598489144,-1.9064941,2.950749,0.5265650745238918,1.597722525829974,6.0834384,6.489443,3.303925756358276,-2.2011578893660024,2.9756782,-1.8535593
MDFDKPDYSALK,1.0809303968790829,1.139093640324903,9.786441,5.657662,-3.7980492802535832,3.7667553697634903,5.183259,9.324259,4.2843904568391995,4.710228341479224,2.3764303,10.356874,-1.4826317391541217,-1.1572177111352244,0.051550362,5.166477,3.2218473848502645,3.536792059872514,7.189177,7.5191045
PFSEDQDLPDYA,0.8779103974971226,0.4987850094709224,9.827736,2.1122563,-3.2198349379254103,2.4826414779815846,6.74941,7.058064,4.210677765930014,5.00471344294974,2.7282417,7.637555,-0.24023225481978247,-1.3795421043667078,0.79633117,4.2766685,2.762973558984245,2.33014813089825,8.239111,4.9411654
NDVHDYASDWGH,0.4161099476804831,-0.5466770387975912,4.0974007,-0.31996593,-0.7623050510666669,-1.511528887091037,3.8801103,2.2511399,1.0783267779379455,-3.809375603694938,1.9320773,2.530259,-0.641048309171633,0.9137186835755984,6.905687,5.744273,1.0887109947180635,-1.8472223343092442,2.5507119,1.7181051
FNDLQDYAWAHF,0.04772664067388715,0.055349021730743395,16.230898,-3.365877,-1.0801473545585694,0.3298099318181517,10.147951,7.225196,1.3204233821038027,-2.602423484810928,6.5138364,-3.7222745,0.5123082956721544,1.3500023090397955,4.92924,9.609407,0.8459494755957668,0.05632805637762226,8.039849,-1.1993107
QLDTQDYAWAGR,0.06179574219781027,0.04367593030845075,15.725934,-3.2355187,-0.6172990808631029,0.09887707182752811,10.471106,7.2554417,-0.013686459952295697,-1.2624131623826695,6.3917093,-3.8156629,0.9653457503878295,0.5439332707863582,4.238832,9.437925,0.43818010590875717,-0.43845677612890727,8.327638,-1.2572778
VVDWPDYAMDRW,-0.11900990811336197,0.38839348621733155,15.863203,-3.9685485,0.4950517846978131,1.9788955305038793,10.702984,6.861103,0.6830507066625334,-0.1725351811270858,6.0690856,-3.765634,0.18116294458774276,-1.9751520982738975,0.42333293,5.87763,-0.28837763594598914,0.7269547103909023,8.708812,-1.7554004
MGDPQEDMEDYA,0.5750987328549061,0.9627781655650206,9.591155,2.8765917,-1.17333014746716,2.508982232795482,6.350335,6.8926,0.8242673151771004,3.8575256870314396,2.8707368,7.4667845,0.8159641543439319,-0.3137097583193261,4.9927526,2.6403306,0.9466237295405644,2.8504694978396934,8.497238,5.430091
WSNMQDYEDYAA,-1.333598122913087,-0.061207675968483456,17.542017,-14.203978,4.256568287525677,0.022151965822054608,7.599258,2.3707128,-5.667016245035599,-3.4070704722080913,8.560855,-0.7023007,1.1708964789551435,0.19627606201237363,4.6489735,4.105687,-3.988369392623235,-0.4454592761353389,14.452897,0.72797066
MDMQDYADLETK,1.1109607742917795,-0.7371247370397253,3.274095,-0.7815005,-3.0020698626289075,-2.0740866835359046,3.1964638,2.4289002,6.622333727614154,-3.07666355930276,1.5423453,2.9642804,1.0924252353777382,0.30850231100316355,3.635386,8.850582,3.650754745467188,-2.384364998252437,2.3499215,1.7179029
LPWKWPPFYERF,0.6681224849548703,-0.10362451266346401,2.885416,-5.219591,-3.2094036884747927,-0.43469207698102696,-0.11558281,3.3506246,4.8440578878583125,3.8458477677261285,1.6743958,10.518014,-1.9349140207776427,-0.7397844407134508,1.892526,5.9005957,2.3419362555103103,0.7126884707621514,1.4435549,-1.742241
QDPLVDVQDYAE,-1.3453944211959028,-0.19419319777736518,19.130539,-13.046871,4.627498280117061,-0.6138883664214673,8.571384,3.6779783,-6.888097558784029,-2.1708268697772133,8.740097,0.56548166,0.7634315226627075,-0.5478694380707042,3.4243567,9.76142,-3.6136392059668614,-0.5368018530400684,13.934591,-0.29939348
WSWDVDVSYWAW,-0.10441125105244442,0.06584293756769845,18.008465,-11.453615,0.3853602217792481,-0.6372784944221612,7.4895215,2.3905213,0.36900525173691195,-0.5749207740317956,8.767141,1.9834265,-1.4596228719760302,-1.212435754736865,2.778066,5.8024435,-0.7275295391735671,-0.24971599168213907,12.333633,-0.5973856
VYDDLHDYASWP,0.9635006851396076,1.7373400478507715,9.746217,6.94772,-3.4862251412616554,5.687422220393642,4.1554093,8.425952,3.6263851209624938,9.575374191008285,2.2246292,9.3878,-0.6548691057589178,1.109637788547293,6.6019053,8.023394,2.6459931037855715,5.540709081348959,6.7698584,7.180722
SWFDMADYAEWP,0.9164160012276399,1.6322251971932398,10.70471,6.082623,-3.8518702908350884,5.323062599818782,4.444771,8.394785,4.369741841518048,9.260552990901347,1.9861003,9.60617,0.6938300773722549,-0.6188433219123,3.595349,5.031054,2.415741215829352,5.100252124962511,6.744739,7.372001
WWDDKQDYATQL,0.8878402504056435,1.6328856726885226,10.557216,6.9537735,-3.7725328233893105,5.075325549510505,4.7800193,8.707195,4.368501582248074,6.303481265600533,2.5887988,10.231544,0.3434797911935815,0.31186677891880527,4.634815,8.688053,2.715806083726556,4.9170964950077805,6.222639,7.1061044
FESGLDFHDYSF,-1.0342050435649743,0.034140077843885536,15.591296,-11.862065,3.043765968897666,0.3853570547399364,10.357817,3.295486,-6.26497379626908,0.37171327361970674,8.629886,1.7451905,-2.8515193038492077,1.1478216073982705,7.1739755,6.9300547,-3.3422145263455434,0.5094927283716064,12.194233,0.27035606
LPWEDVPDYAFG,1.4040672998080808,-1.2047110228279476,2.9188597,-5.955749,-5.011344725765598,-4.393158974855238,-0.07099014,3.2977512,7.625270274984414,-3.168772554994182,-0.7739822,2.8907437,-0.12810504946569087,-1.905656865805168,0.4423521,7.1265454,4.868287150829869,-3.472421237911701,1.7168281,-1.4142277
LGFTDWPDYASL,1.2806419948336414,-1.1705358451789305,3.850605,-5.8369303,-4.254582604412588,-4.8508595218294674,-0.19558382,2.936555,7.923099698184425,-5.03030404927057,-1.348912,2.7501915,-0.47614080688539856,-0.8912708847249117,0.36132687,5.8623924,4.409714393592755,-3.873093948546859,1.6723725,-1.5724741
EPLTDLMDYAGV,1.3510293446476913,-1.2185248494201426,4.7384443,-6.6884003,-3.9794064450508833,-4.307722296006581,1.0705755,2.2577648,6.401430609742339,-5.663545649327232,-0.8409853,1.8806024,0.38083482113067263,0.04885473530046522,4.9307756,5.770973,4.3926919832151805,-4.0636067670594525,2.9613442,-1.5151712
NLQTNDVQDYAS,-1.372685959462557,-0.19653070348820753,18.586382,-13.3774185,4.308199501290347,-1.5643690596220916,9.044157,3.1113849,-5.3588321250568,-2.3540227490227097,7.3912764,0.2119743,0.12413447437412743,0.030035236849403513,3.4616358,9.774482,-3.690477754077713,-0.6064054432654696,13.935069,0.538255
PVLFDMADYAHS,1.3898870815657491,-1.201720810380451,3.5010068,-6.137554,-4.405176234035048,-3.741256137420106,0.8844097,2.8914032,6.435707018034859,-5.860244527769715,-1.4863652,2.1808991,0.6002234992237886,-0.030309042192815598,3.576709,4.9660482,4.722255987474294,-3.820122455563458,2.5634468,-1.5161394
DDVADYADWWSD,0.9601135374095797,-0.8116873327930476,3.7260332,-0.9731131,-2.4639499063156385,-2.5139112080929404,3.267002,2.4003325,4.642895176176707,-5.439105357185684,1.5456783,2.524843,1.3914848991377833,-1.2724579085568035,2.6982284,5.398826,2.814045418497469,-2.9281635155781967,2.42921,1.3105065
SDQHDYSWFGRP,0.8429904190256492,-0.326192948937753,4.6442146,-0.20436661,-3.5691110139940543,-0.9206180650233935,3.885604,2.0217154,7.294851574324908,0.39471902336900444,1.7225988,2.615169,-2.83998397950958,0.19037442762716147,6.4155083,6.561184,3.6885001451762798,-0.8130933842965546,3.137952,1.7737345
LTTRFDKHDYSH,-1.1032652107847278,-0.10255190702397676,15.784269,-11.716925,3.258133904382104,-0.6772548225919699,10.159186,3.3397794,-4.809281130726497,3.528596030403558,9.641329,1.6054711,-2.5833665527349727,1.573809080792393,7.571847,6.923991,-3.329091994718083,0.08966387883284249,12.180109,0.36474738
HGGKSDLPDYAF,-1.4115264332533124,-0.21379591410594231,18.112442,-12.449669,5.3123687562053785,-0.6779771625859403,8.3984165,1.9637424,-5.180310714139325,-0.9494326496329577,8.13209,1.97973,-0.6509659940428428,-0.5838274138024904,0.9721425,4.2998447,-4.409028008765229,-1.193864499600071,13.198334,0.3687765
AMKLMDLPMYSD,-0.7954671074117469,0.0007252918827263914,17.541813,-10.582475,3.441711997080384,0.3865741796721873,8.654119,1.2582686,-5.019647409870444,-1.514293582485494,8.954598,-0.48908126,-1.1501692174809184,-0.21707809093053534,1.2348425,4.4631567,-2.614814883066538,-0.018362329205933843,12.788667,1.0055656
YDMDVADYASGH,0.9830062425311098,1.492939549504033,10.82681,7.10456,-2.9003263280903453,4.59954952956797,4.340589,9.213748,3.7351450026207393,7.27086750053007,1.7622247,10.150909,0.9734669911539928,-0.36623149100330576,2.80619,5.1225305,2.56070462283098,4.442586948325621,6.079158,7.401917
MTFTDLEDYAGV,1.368826336972441,-1.195010479831355,4.5157385,-7.156981,-4.061939748338929,-4.097360154752845,1.0306107,2.0442386,7.917479988610261,-3.6961441942360787,-1.1845244,2.4506276,0.5234793552778421,0.5720184573579119,5.77986,3.7225752,4.493349590471142,-3.4283039166282494,2.9259837,-1.8456359
DVADKEDYAAMR,1.0997553705326553,1.4044727027673687,10.457884,7.1085978,-3.7537442554425415,4.378137437493389,4.3336263,8.763032,3.070047379410035,5.56977543677834,2.193522,10.134572,2.416942593491216,-0.29331366625788907,4.2739797,3.2350357,3.052182392705846,4.44504717065754,5.9761105,7.458215
EFDYPDYAASPF,-0.027656489254757895,0.5143041505131885,16.000492,-3.0785818,0.23073231759887036,2.464618648645066,10.564098,6.798446,-1.025262898693431,0.40792831892199627,6.1859937,-3.9272132,0.5812589452416439,-1.4947143817575719,1.2724544,6.0033836,-0.2643739608404793,1.3248543818713423,8.236524,-1.736724
YDVSGDMQDYAE,-1.2917417998181702,-0.2769361336176079,18.550537,-12.7775545,4.361444672216966,-0.8716184338552865,8.642318,2.7281587,-5.080975228219701,-1.7192513618325154,8.426684,0.33048275,0.5238215078731018,-0.29659495637246625,3.5973613,8.865149,-3.7395617769117635,-1.3265660480206332,13.504433,-0.84622294
LTWLYDMYDYAA,-1.2086210333795249,0.20744544703746778,17.3895,-13.662164,3.4939547429291147,0.975189349908283,8.505326,2.3365836,-6.035496664869339,1.1690823461274633,8.537082,0.4887021,1.1158006102240456,0.5649519857309685,3.6520083,6.210862,-3.893820188219839,0.2851806692728343,13.997807,0.63032913
TLFHDMMDYAQV,1.2960070510538284,-1.1026731763332165,3.650279,-5.7927065,-4.427822282015307,-3.389289288070309,0.7314444,2.783496,6.589085165088374,-5.0421718336519366,-1.199263,2.0854769,0.16227492934323892,0.7883712855789702,4.4418974,5.75031,4.118333922230245,-3.6223316881085124,2.617768,-1.8756937
QLLDVEDYALND,0.8236010428480257,1.5842624118165496,10.966338,6.933766,-2.372927705589784,4.857463053202592,4.3845267,9.083954,0.9701959404212184,7.550127964325788,1.2765021,9.922723,0.6419175223171932,0.6399265747187896,3.6723213,2.8895435,1.7578966428744482,4.7452045997155725,6.024912,7.4529324
EDLEDYATWNFM,0.8918328572240214,-0.47364577067541735,3.6341302,0.11470409,-2.9718304613155784,-1.231089278971583,3.199421,2.2641776,7.365252714793115,-1.1799864194631255,1.6156946,2.6086104,0.44807291213470307,0.840337997900614,5.697829,3.7269683,3.3979894335200496,-1.0282665299765459,2.868921,1.7557905
EGMMDVADYADT,1.4226828662022677,-1.2433537110284916,2.903102,-6.412638,-4.538667151054372,-4.010798368789976,1.264779,2.077023,6.738905951023821,-6.259431854049745,-0.9585799,1.8860554,1.945299727490302,-0.8017954702666068,2.8288612,5.367538,4.307055601123418,-4.032786326929659,2.5631108,-1.3729992
WAEPWDMQDYAN,-1.310170566963851,-0.20057619724266107,17.262209,-14.128001,4.637331362254071,-1.0883967458025214,7.6224046,2.633502,-7.232417991411219,0.4775236806384733,9.342414,-0.20248368,0.9331795649951945,-0.29931313302044277,3.6068945,8.878545,-3.7135045196989567,-0.42096527413515716,13.0488615,-1.0916637
VVRDKWDYADHH,0.9316030450206898,1.6604052631115582,10.01106,5.8872366,-3.347754002024425,5.114166643171627,4.0704536,9.056967,7.115819075292694,6.439852285008055,2.6180496,10.051471,0.3593898380931941,0.05809516456221885,3.0455341,6.990332,2.8058213123412705,4.508461615854429,6.952678,7.1599402
LDLVDKVDYSDT,1.2053180301618274,-1.0802624364218836,4.111031,-5.0608006,-3.7027271661024836,-3.4952082616749154,1.1851888,2.7420442,4.238566108606056,-6.752008738474292,-2.2089226,2.4568264,-1.5562197278398389,-0.4475308819950721,2.009974,6.9046636,3.154334520305255,-3.064058404858607,2.3579707,-0.8522932
LNLADVHDYATT,1.4000468327153879,-1.2020763900485287,3.7191665,-5.6839166,-4.441073356686607,-3.7989470975857227,0.37494668,1.7487963,7.117783049514208,-5.212807084943325,-1.150863,2.6944182,0.6352852099606379,1.3747114151869115,6.946121,5.7600627,4.324389531022486,-3.1870355186006885,2.8766139,-1.8555375
FFFYQMYPWWAY,-0.020173606570471563,0.059052339134319745,17.085018,-11.779265,1.0274483869274642,0.28266303973929063,8.14295,1.8072063,2.1801286204059633,-2.481840128510222,5.8310905,-2.5574892,-1.1824202225761724,0.02240622746095012,2.1151803,5.4845695,0.09856596010204295,-0.22807878503400217,12.076229,0.061385226
WATVWDLDFYAD,-0.7581582491333175,-0.46142830109659877,18.39218,-11.656125,2.677524395168325,-1.8101789333878524,7.788746,2.4875228,-4.332549960671805,-2.296745136968892,9.154513,-0.052271802,0.5736212990574882,-0.10324229785226684,3.3753128,6.686786,-2.270213287325896,-1.8089730137635809,13.0228405,-0.94245595
ANDLHDYASVTA,-0.18091508311136584,0.3695363498585911,15.612511,-3.0053508,-0.06649832633518207,0.7467413686273932,10.085243,7.533304,-2.4929309479726514,-1.68546494180931,6.7890396,-3.5933025,0.588428736881739,1.7233384777479819,6.9069743,7.9608026,-0.10040129067057087,1.3576071189885566,7.868487,-1.5384796
VLVDEADYADRS,0.9137581282176932,1.6908727698858073,10.139003,5.869983,-3.363364117521576,4.923732392061354,4.6445255,9.002768,6.189579892788368,6.509130282466061,2.1807144,10.425402,1.411231121526519,-0.6430864400397661,3.0281246,5.6836267,2.7037417055087367,4.9705456730128805,6.477796,7.593759
PLMDLVDYAERP,0.9684870884154917,1.6497703983184462,9.819164,6.3226953,-3.9884661142042828,5.445277764341756,4.899317,8.810044,5.420068210301411,9.289911202234396,1.6395543,10.301257,0.3398682197291158,-0.37147270238859825,2.1272008,6.4408746,2.9031852325098466,5.566633147393338,6.441066,7.108669
WADWVDMEDYAN,-1.3231449132214668,-0.09578155698261542,16.312683,-13.967119,4.419868739675436,-0.6159592973552397,7.577782,2.5694752,-7.194917814739606,-2.243020267104173,9.165199,-0.29884273,1.3265211271524437,-0.42524353063252834,5.047032,2.5853372,-4.0864426595929695,-1.041498026978763,13.298028,-1.2569484
YEDYPDYADQYV,-0.5343959379545876,0.223645822069478,15.562499,-3.9277923,0.8685384047860777,1.870851495875796,10.638612,6.6551814,-2.465859981494114,0.37282931867081454,6.052273,-3.7430048,0.9555316756455229,-1.442223036518398,1.3886642,6.090558,-1.3771021070338738,0.47690534279722663,8.840051,-1.7913734
TFVNFDKPDYSF,-1.0850776855111806,-0.10806651680841281,15.949041,-11.359782,3.839020383491518,-0.29895300135990494,8.83337,1.3533702,-4.6699246404317245,3.936136180557832,9.351927,1.7348355,-2.3979355254684434,-1.2715143690410775,0.046332143,5.12181,-3.221524821110169,0.13955309510897196,12.441049,0.6025165
KLLEPDLDNYSD,-0.4655661351285788,-0.39747572298859546,17.625795,-10.618305,2.612131959349829,-0.23901805482659935,8.79511,3.9886363,-5.111251905510993,-1.650890775705148,7.5317116,0.6023253,-1.6868440634176798,-0.08896154968202985,1.1092921,5.35419,-1.71301965453555,-1.2204442742781172,12.831099,0.6579721
TNFQHDVADYAG,-1.3366632925696114,-0.16137523046777322,17.23548,-13.181981,4.024355610757741,-0.9423857727252429,9.015524,3.395856,-5.364348840331107,-1.0209720892489238,7.84117,0.71396697,0.977330060765216,0.3635988967240501,2.7371683,5.239711,-3.440157553865943,-0.3796432207215278,14.280117,0.5969275
LDVKDYAAFNNT,0.8297953709389226,-0.4179297064139071,3.8308845,-0.17925745,-2.877999948021697,-1.8783199294418202,3.3958526,2.2221565,6.7523936939349,-0.9282203300730032,1.6294818,3.2586808,1.1328312764295334,0.21017567172645987,3.447944,7.4058657,3.20516998552404,-1.3764613541070438,2.70945,1.569533
FSVAPHWLWTYH,0.4139593410134842,0.27385837009981245,10.498129,1.9221913,-1.6320065220908238,0.946010942630906,10.48789,6.1064053,2.4339478649847055,0.33039994507678083,2.3591685,3.7859893,-1.6963308988097043,0.4122679104635674,2.845261,5.3983164,1.2329953753042406,0.3472059123961251,11.331073,0.12849517
NLLDDAPDYADF,1.5253636401155577,-0.8467268331187281,3.02772,-5.90288,-4.901174243968176,-4.075833278275804,-0.06604816,2.9423862,6.731420390140494,-3.3521787728039696,-0.8321398,2.3241408,1.2397151430727045,-1.0169322930819698,0.84418696,6.2598324,5.092959502313596,-2.686141945224906,1.8330928,-1.2088751
YFEDQEDYAGWS,0.8761837840871407,1.6352728554805076,10.665431,6.490761,-3.1890203613527754,5.0755278458391135,4.484711,9.0206585,3.5083330985045875,7.4492717576256515,2.4989862,9.738796,0.14656600549941395,0.26856034022262093,5.043643,4.2643046,2.343049498063345,5.243051918055435,6.713846,7.648652
LYVVKDVKDYSE,-1.081885260865369,-0.10866893478573941,16.538338,-11.505773,3.58086570941097,-0.6338239311295213,8.101184,2.8834767,-5.12959278443655,-4.848180248942447,7.8590407,-0.15371855,-1.6461056377280867,-0.6621794114509152,2.7409117,7.2345347,-3.5328759699972947,-0.8126353019614976,12.980124,0.97408867
YLKDMPDYSHHA,0.8210472813229395,1.5004616277904272,9.413372,5.9344025,-3.130901399915994,5.192736715021196,5.022397,9.363834,2.0966090676471176,8.58085584776948,2.1795332,9.947569,-1.7717213093520865,-0.34766898344968333,-0.5021207,5.7077956,2.03058858300273,5.163908449465039,7.062449,7.161125
PMFQGRDLPDYA,0.5815572836233408,0.8601494041470094,10.01418,2.3217382,-2.2997134983426912,3.2808154868154844,6.726752,7.072752,2.923545753973504,5.409001954048068,2.7679687,7.4310527,-0.10914186596253884,-1.2855562406295489,0.88845927,4.256078,1.8069699792333604,2.6486554983566637,8.494151,4.953029
WYSDFDVGDYAQ,-1.1921577698458568,0.1536814190884823,16.915527,-12.940282,3.8214200900483957,0.14983433174048003,7.7326856,2.259325,-6.4340675809848396,1.6132174519183786,8.932377,0.22559789,-0.35934224530662895,-0.5248504843489401,3.2111716,5.9609213,-3.6425522605603025,0.31481357076416394,13.66132,-0.35395634
SYLDYDWGDYAA,-1.1308391110773668,0.19350205792404673,18.162743,-14.309402,3.812817924413934,0.6602716316492849,9.822061,2.2687159,-6.253607085310055,0.4903649558532275,7.950778,0.8324264,0.9234210954491688,0.12120580778736527,3.8502033,6.12191,-3.3633499310513804,0.30142847494596364,14.0904,0.73180866
AKYLRDWKDYAD,-1.383001372717928,-0.1927905093400841,18.477123,-11.176434,4.968346017590982,-0.3097950563523645,9.794109,2.0714645,-6.043863081419813,-5.559771439413574,8.45738,-0.32891554,1.1834438064343147,0.07779968915475832,3.3142893,7.42598,-4.683912644120065,-1.1645505704169865,13.431927,-0.6579839
RMLSLDKKDYAH,-1.2512841398451797,-0.1433294213027842,18.104345,-12.692043,4.386041814610837,-0.7647577586511116,9.107741,3.0629282,-5.019980147521044,2.042124077311489,9.259155,1.5339226,-0.22991921000393237,1.0369960236751652,4.0319157,7.520851,-3.9959053550124266,-0.12762077070398134,12.783638,-0.24450776
FEMEDMQDYAAY,1.033172514216666,-1.2787890873286363,3.8024929,-6.1206756,-3.256931847226009,-4.2456743408151185,0.39056998,2.362571,7.428495348037915,-3.441173514057885,-1.0179969,2.9915535,1.6191770296143917,0.43859912925725786,3.6043344,8.902801,3.5845945672531,-3.0974369380763704,2.9165184,-1.3764868
FYDAMDLSDYAE,-1.3729234171262443,-0.1049976975815584,18.673878,-13.298004,4.1749720863787445,-0.055014760620573984,9.004125,3.2683964,-7.129739631737521,-1.0652262412187246,8.970354,-0.18414477,0.6928471868666362,0.2901276748105986,3.7048533,5.9959292,-4.372182046339045,-0.22440203323769287,14.086646,-0.80460256
ALHDVEDYAKGP,0.9041559689598976,1.6564529794576113,10.843488,6.9408774,-3.1025672958888735,5.53777446400074,4.665153,8.768771,1.0665563354165575,8.923451612982449,1.7423035,9.534674,0.7222967980714294,0.5637570027512522,3.8258822,2.9942358,2.328254155514026,5.218029843890008,6.081821,7.377837
VANKDLRDYAER,1.373366928716524,-1.1897618272523893,4.9749465,-6.217475,-4.471012121990756,-4.359453123692484,1.0881586,2.4034817,7.9935735149210005,-2.5124319975188105,-1.02949,3.004189,1.0213427305087666,0.3801848058532455,2.1546552,8.32234,4.540446515356122,-3.7485955164526192,2.825538,-1.3356843
LFMLADKHDYES,-1.017844128049883,-0.09632650722122837,16.590559,-12.090449,2.743295263170693,-0.22762130114313203,9.970479,3.234628,-4.463588535347084,0.42242263354498266,9.860148,1.3280704,-0.9351819142313434,1.357668522194699,7.633467,6.7673573,-2.7959911197878715,-0.1635864483140577,12.7401905,0.14249037
WMAESDAPDYSE,-1.0112786203887585,-0.1671275428739761,16.806667,-10.394532,3.6948345982577755,-0.5020518236256382,7.8448706,1.7669526,-4.5669433796419,0.12032953633890216,8.056373,-0.30121613,-1.0421358194011507,-1.5219094170158918,0.5925923,6.293306,-2.6995259831817178,-0.09094073387647764,12.788267,1.2354109
WADFSDLEDYSQ,-1.157993546433697,-0.07596562804847978,16.058016,-11.384285,3.4714496687379244,-0.332533550439287,7.6462193,2.3589475,-5.950195758538583,-4.55670568565365,8.671085,-0.41112489,-1.3443836394809758,0.06942309269188246,5.6582794,3.24845,-3.791906066553982,-1.1716977398429995,12.603725,0.62577766
DLDFVDRHDYAA,-1.3365477356860616,-0.022218215507962796,16.348713,-12.904345,3.9787371145206953,0.044414741909553884,10.066599,3.4494398,-6.276398509183256,1.5377780761147959,9.280781,1.5763595,1.0078021034723632,1.169052467739131,5.9793406,7.420917,-3.7723704552099813,0.6094159801522769,14.371276,1.1232587
PRVLTDAHDYAF,-1.2524055126189733,-0.27738730266875244,15.931035,-12.69328,4.08063654437568,-0.4863699589733932,10.189591,3.5262895,-4.828954831874685,-2.4466994373110595,8.107517,1.4272565,0.4082677700581524,1.0164482068760463,5.9529915,6.9013057,-3.6143294680561517,-0.7814966765285567,12.641681,-0.18157884
PNDLLDYADKQD,-0.6627275358282435,0.24571813736182507,16.057068,-4.3450017,1.044840467810033,1.3218576029134006,9.922093,6.835201,-4.016880204022744,0.8474531545155537,5.911071,-3.8770773,0.7860560024789958,0.03662869673390477,3.3538184,6.8556833,-2.135648868099423,0.8896887464528335,8.14602,-1.2883971
KMTMLDLRDYAY,-1.3453900157212986,-0.09335742708068094,18.00013,-13.086393,4.658459649008204,-0.2965236462974046,9.257549,3.4084795,-7.214711230232324,-1.5331442365100623,8.025453,1.5391197,0.3344965790120406,0.8327658824505519,2.2196693,8.266461,-5.320148611158559,-0.619711533566722,13.088134,-0.46366245
NWGLDMRDYSDM,1.1562561064467358,-0.9689298457375386,3.4723358,-5.0542464,-3.4251097199114544,-3.345114557402977,0.70356464,2.870597,6.982335167153748,-4.304013538605793,-1.6252706,1.8823318,-1.793633713994717,-0.34710783295797637,1.7319198,7.4583015,3.4160099950219474,-3.570286907812337,2.224875,-1.9304883
WLYLPYWTEHPQ,0.3866279122769783,0.19174964352454704,14.128584,-4.1683426,0.1289119661675162,1.1671257614769648,9.6294985,5.95078,-0.8112332873633742,-2.292604080393458,8.774614,-0.3769987,-1.7258891452389846,0.2455742803151959,2.0500839,5.5913796,-0.06674020437422441,-0.12361682369496996,11.185017,0.1538856
YGWWLDHPDYSW,-1.0139947658534976,-0.03470610935571675,16.422232,-10.37884,3.798828399161051,-0.015441212241482007,8.192011,1.5010362,-5.731626306472867,-0.3322361743713346,8.727714,1.5921794,-2.485211095733704,-0.7591440864666784,0.9966262,6.3231072,-2.9277081601091406,-0.24042768472963155,12.159431,0.8510717
AQYFDVPDYAYW,1.3676763548883322,-1.1198008055989632,3.0558145,-6.0782056,-4.578808847768392,-4.496910617190771,0.1399408,3.073751,7.2258352079717465,-5.730799821085786,-1.4415817,2.3561041,0.5422806582763278,-1.6425681091237816,0.39427078,7.064568,4.235781218941504,-3.3563758333682903,1.6970739,-1.5542649
YMPYDVPDYASN,1.3189527546194257,-1.1935593755162606,3.4795263,-6.164761,-4.362754241695569,-4.742468499175923,0.22706261,2.89937,6.023719947546238,-5.778642678878478,-1.4771476,2.6348815,-0.2896763064156344,-2.5043812144881126,0.40995905,7.2527976,4.204813331935862,-3.618577690415901,1.7636589,-1.5430678
LNDGDYPDYADA,1.3834791716760884,-1.1349440603516463,3.1745696,-5.4870944,-4.706557010788059,-4.786764458408118,-0.08444937,3.0383193,7.143577297747797,-5.019038112129676,-0.8435125,3.1611474,1.438871448091931,-1.379011784940419,1.3022761,6.092163,4.273246930075482,-2.685991259360326,1.9741931,-1.0365367
WGQMFTWFDHQP,-0.04631501201762735,0.10441053382386424,6.603573,-4.471071,-0.6351741039906434,1.3393986103067372,4.788228,6.2408147,-3.0593258239634626,1.5628478281363607,8.970568,-0.5778414,-1.6681959915483788,0.14162258151095836,2.1406088,5.6882734,-0.6893844577889071,0.6238407598654794,11.079028,0.19076683
SKHPMDPLDYAL,-1.1571024043928342,-0.19064017225004395,17.836779,-12.66416,3.4523289193117113,-1.2185226083006928,8.180351,3.7969842,-5.857102923863729,1.454057683174542,8.403479,1.2401632,-0.4014752686485412,-0.0033372775219855004,3.0592582,6.792787,-3.653760295930927,-0.1762513231047194,13.867076,0.10004233
NVEADDYHDYAW,-1.0566189364070213,-0.5163426139055666,16.134354,-13.321739,3.5158013359590607,-1.0022817082306905,10.052047,2.9067023,-4.965734566659771,-2.5962105865513223,7.800497,2.0457678,0.9193004967107982,0.7714941599878542,6.2091103,6.835307,-2.816776456722644,-1.2867879586970794,13.641483,-1.2949181
YAWHWDTVDYAH,-1.273938906786532,-0.20643005339001505,17.389597,-13.31866,4.487557098077415,-0.7130327611449884,8.979347,2.1730723,-5.987081875139162,2.848436241008635,9.117339,1.0296028,0.7954564347125282,0.6308950906333117,2.891324,6.355092,-3.8101757812494,-0.49638330640355655,12.729569,-0.85779244
VMTTDPKDYASL,1.2406778055965981,-1.0214884593317277,4.1861134,-6.444444,-4.301000993086222,-3.372289913201689,0.7151499,2.2480795,6.418866477306008,-2.9929414268592747,-1.7499051,2.8906288,-0.08422051488953129,-0.5306120130546019,3.028473,7.2255797,4.073347120199303,-2.528581089707498,2.0508387,-1.883489
VLWGGWPWVPWW,0.42675205814508427,0.09584520854866774,4.8240614,-4.099633,-2.196579365952067,0.05959533151849247,-0.33595175,3.2071972,5.6788404414335725,2.5634656904705415,0.43417886,3.6257622,-1.9310305365890992,-1.2511526489611506,1.9164218,5.5141196,1.6061364539941299,0.2895233842241082,10.944361,0.29449928
LLDVQDYSAADR,0.20860399880248742,0.2562818395707968,14.798478,-3.7027776,-1.3318969201572681,1.1583067131113065,10.3901205,7.091244,-0.6768629655186355,-2.234419516740864,6.371853,-3.5094123,-0.188076206563023,-0.12314669684583678,3.2172334,9.554532,0.2191444272265368,0.7081818231326092,8.084012,-1.2591205
VPYMDREDYADY,1.3353566002018469,-1.159423286445278,2.7606087,-6.2964597,-4.279335444987939,-3.6630411330103922,0.48649794,2.3290434,5.22271632272872,-4.32283375018066,-2.048997,2.442052,1.062135902672692,-0.7986470458041085,4.823257,3.466185,4.084184919716611,-3.1627709712263243,2.232368,-1.4814146
DQNDWEDYAAQF,1.0772528176442708,1.3827863048856857,10.849899,7.1157866,-3.479812633635216,4.3492311689728895,4.984619,8.637293,1.9016709840203807,8.48381816494834,1.5856807,9.302384,1.4734196481514088,0.27195865992740176,4.107754,3.9667187,3.1353620221345295,4.795846739292787,5.8846164,7.5244827
KSVWWDVPDYAR,-1.3350082546505793,-0.23125739398813377,17.703053,-11.976368,5.017570047526372,-1.0575632121229848,9.110746,1.6060941,-7.506297033313809,-1.390244919144695,8.632072,0.8305671,-0.46927196958676143,-2.3125763785330062,0.38878715,7.1823096,-4.087564650866354,-0.8572968698170703,13.046286,0.58148944
DAYDYEDYAAQS,1.0528587342358962,1.3860767911623748,10.419778,6.970171,-3.536857769178409,4.201393744499929,4.606194,8.97818,2.1667555301421917,7.691356637643665,1.268767,9.695556,1.9852329384948166,0.1578306253039665,4.7339625,4.2194896,2.918551592132994,4.391852965276793,6.0381827,7.5771713
FDVADYSAYDFQ,1.0445458390433313,-0.53627141662031,4.4366574,-0.63764894,-3.5002108146732898,-1.746850267064387,2.9940138,2.3824298,7.7069932072738885,-2.0123076353280784,1.8939439,3.1619108,-0.354340259142924,-0.6066578473259816,2.6442862,5.033577,3.6619394701467773,-1.6515716272851286,3.1013634,1.4242902
RLHMQDLPDYAT,-1.4033298746679932,-0.17289178806846175,17.422985,-12.110791,5.237795203838427,-0.06337361352619435,8.408938,1.4818295,-6.5510789616452065,-2.4186471609246687,7.464711,0.8287211,-0.07084378267229247,-0.151928379655908,0.81227946,4.290869,-4.77566748525569,-1.083243658057134,13.348298,0.57630914
SWMDDLVDYAHG,1.4485165481307745,-0.8374253983736034,5.0777044,-6.5482945,-4.87150972069259,-3.324332276451937,0.98692185,2.5630474,7.1643624695519375,-3.5902777632445506,-0.9096774,2.276343,-0.07597654042590456,0.2494300253200651,2.1514626,6.35481,4.714174886806751,-2.87414282822443,3.1020114,-1.6133856
PDMADYASFLHN,0.8744436189515742,-0.437108914331159,3.32741,-0.61088055,-2.739745581232703,-2.0779095734939084,3.1531966,2.1356585,5.331037137758759,-3.867669638643689,1.615345,2.821039,0.45423252252095764,-0.15471638463976556,3.612358,4.9991226,3.2562528157631796,-1.917639225113652,2.7151356,1.2771057
FYTVDDHDYAHT,0.8932057470227771,-1.1500540988418624,4.322349,-5.832644,-3.6856661057006757,-3.3922032790339918,0.17935175,1.7400542,3.4912388290863747,-4.899720715342197,-2.0927048,2.6724687,-0.07093676129774298,1.322038217591944,5.958172,7.01298,2.869122105316537,-3.035370206525708,2.090969,-2.1974876
NPQYYYDREDYA,0.644210326894388,0.7864209463612294,10.068207,2.8282344,-1.4446938557641524,2.057009599570423,6.476257,7.211901,3.0300987660691803,2.4181897026695833,2.6183248,7.161076,0.43956670236751544,-0.031503733632153814,4.8826904,3.377465,1.5929119487690975,2.371638928243642,8.331283,5.2919607
LDFDKQDYAAVA,1.1166553256455913,1.3808682854477334,10.176541,6.5766225,-3.5337210847042404,4.330562000900582,4.7180367,8.916496,4.581287967991824,5.080457745211848,2.2910557,10.3673935,1.9686665441908608,0.2784320304165801,4.5203676,8.480802,3.246342862355661,4.51398371085564,5.6682897,7.4024315
YPWKPDKEDYAW,-1.3093105487121466,-0.20497007028344508,16.697039,-13.216869,4.67810871955409,-0.9522737276433566,8.4281,2.371944,-3.3868642851594406,1.0013778296165026,9.008013,1.890566,0.047911914288282884,-0.9487584344723822,4.413691,3.130323,-3.7414949601478065,-1.0522856500598128,13.0357485,-0.7072249
KFDLLDATDYAD,-1.2844733936665258,-0.10982737536108393,18.722364,-11.639879,4.326661168356959,-0.28827208867287735,8.974176,3.0832818,-7.321105614281824,-0.1404637369573607,8.4996605,0.9577615,1.345295777159119,0.42952740526581507,3.8269804,6.69141,-4.434888730386332,-0.1263481652544814,13.696821,-0.36453664
DDVPDYASAPSP,0.9324080111904354,-0.17824236713308003,4.0348463,-0.9403346,-3.424035441613924,-0.6730169567729443,3.4218514,2.6261165,4.737826797431994,-3.199153536412383,1.5754218,2.4931035,-0.05079958199825628,-3.214056094785972,0.35497195,7.0973716,3.2846013590591587,-0.28246667461932257,2.903547,1.1285819
WDLPDYARRRFS,0.8706413729455293,-0.48914258799557186,3.73316,-0.34624782,-2.474820275289276,-1.5070699059370782,3.5824795,2.8033342,3.515044693447536,-2.8306269449349966,2.0985649,3.2232118,-0.5864746559423556,-1.0337184862204851,0.80689543,4.229735,2.697736963346795,-1.5362917173875512,2.695853,1.5925819
YGMLDQPDYAAY,1.0109384337601097,-1.2407735454525317,4.009464,-6.219954,-3.301262441159879,-4.704805482472633,0.10443314,3.065278,4.494658084515547,-6.290489701351881,-1.9391086,2.3167248,1.2062630890085277,-0.7043722413129082,1.1997392,5.3083115,3.318441823230706,-4.219186374484252,1.8904707,-1.5882167
WGATYDWFDYAH,-1.2739685166218129,-0.17208073719497483,18.38586,-12.715231,3.9674030701845666,-0.025315818757614586,7.9348397,2.3101013,-7.044225834815479,0.8920913632263312,8.77274,0.21094261,0.43884118107304243,0.5318245833838917,4.4222813,6.9229336,-3.7705800026596634,-0.31435778632670136,12.766636,-0.87572974
VFEDWPDYAAWT,1.1009847747678123,1.4265539362070938,10.524087,5.936052,-4.41690395450714,4.973749160162065,5.2380157,9.22161,3.336825924284573,9.52650993526294,2.3824117,9.496499,0.9105921364389374,-1.3745366071060885,0.52225953,5.826601,3.200856144157637,4.853322102555994,6.6974387,7.8936267
NPLWDLQDYASH,1.313016916328279,-1.2804212666327506,4.793129,-6.7112265,-3.936660392866768,-4.764488476718218,0.6462991,2.442778,6.826318585738987,-6.253633870176947,-1.4437214,1.7927017,-0.3649345978340733,0.7920268045243318,5.0670466,9.628719,4.280653943260021,-4.086048636263528,2.8838232,-1.947789
FWMWTTWVEHQP,0.42053433754130026,0.22936989959418508,6.344835,-3.849218,-0.8476843942080442,1.2213268819321095,5.0022864,6.3078666,-1.8759561520791814,-1.2335117043439479,7.5950885,-0.56951696,-1.7040937494413186,-0.11324715842427568,1.9642247,5.636584,0.41031052466222434,0.6656229452581932,11.028926,0.25578102
VNFDYPDYAALS,1.0644434856951888,1.4373167801905748,10.463077,5.9663615,-3.9496086028581403,4.554502163413344,5.1975584,9.390662,4.009069022165021,7.401222851845135,1.9561509,10.046343,0.7078565234198129,-1.116076478163188,1.3155558,6.0259156,3.199484737604089,4.658999856000632,6.549551,7.860728
APDLQDYAEKYV,-0.12186743960744051,0.34830023852994424,16.199907,-3.6905215,-0.011928802668453687,2.0166420810629826,10.300412,6.747433,-2.020419753904142,-0.2565639463930237,5.8739557,-3.8870914,1.0513210098219414,-0.02994214970814893,5.2275767,9.690709,-0.7883904920712169,1.0305350910371778,8.0695715,-1.3090956
AGFDKKDYADAF,0.5936083515689978,1.5249441502376095,10.605095,5.726569,-1.8640483737159028,4.813831908016675,4.3913255,8.908779,3.9833911283147394,5.893756654948955,2.389213,10.310096,1.7514821115179928,-0.006730502848769758,3.6946976,7.30689,1.7942003949938572,4.744263874058971,6.1293273,7.6436987
DPGTYDLVDYAG,-1.3320333957729222,-0.15212422091206382,17.992188,-12.947863,4.487508966754137,-0.2517957304397999,8.449027,3.7526174,-7.100859065504286,0.9757583036104055,8.246389,0.87952936,0.4125470315269226,-0.4247802379400783,2.1557148,6.3891854,-4.214323303478965,-0.2862229212775157,13.724819,-0.16617614
RKWGDWPDYAAN,1.0227631311094294,-1.2933048696666476,3.591912,-6.6282563,-3.1467058665852017,-5.364251779125505,-0.22523095,3.004317,7.239444812838342,-5.320745874925416,-0.691601,1.9454738,0.8608393664633581,-1.302971051062049,0.527616,5.718692,3.3288023632766177,-3.872900341157566,1.9680188,-1.4975319
PVADTDLEDYAT,-1.2432693502112533,0.16611110657414652,17.395548,-13.709842,4.175841273616568,0.5528509985299012,9.3889265,4.0073733,-5.337145605781416,-1.138105710691252,7.6769266,0.2951759,1.4046949590640099,-0.08781455796524433,5.669458,3.7885158,-3.4194708332680435,0.21962187091945537,14.264079,-0.5190751
NDHLDYAYDYWY,0.07625244095945265,-0.23544146583987774,3.8509128,-0.049571075,0.004023687560978883,-0.004151638049816517,3.9409475,2.2007456,0.14102398858596557,-0.9860067781999831,2.1100407,2.6518247,0.22935340225427153,0.752282956632227,4.669746,6.829632,0.34710436918405374,-0.9755150346205969,2.7415864,1.8327899
VSYDDVADYAGS,1.5022989773462652,-0.8359673648179768,3.0970986,-7.080626,-4.328932426581653,-3.2430951891670796,1.1417816,2.2233746,6.794498824960826,-3.8182450420320038,-0.8369279,2.7743657,0.7386539523486099,-1.008886280765063,2.7404315,5.2997584,4.887115735607885,-2.776419734605877,2.8553102,-0.95788825
PDYHDYAFARGL,0.9517595665445737,-0.15574820720928112,4.216015,-0.29136392,-3.0398335711209805,0.5565079156713453,3.847329,2.2084632,3.9183086854481837,-0.0035742946254540137,2.0751338,2.8005152,0.2963475920462016,0.7425623835350632,6.197682,6.950467,3.268687492306704,0.33315885434047277,2.979498,1.9508402
TLHYDVPDYAWE,1.3353094800893053,-1.1435083654083404,3.3037612,-5.9792852,-4.637790077127953,-4.3927900553446,-0.13412862,2.890054,6.609307395143737,-4.755800185375582,-1.1616781,3.1155586,-0.09348466066919991,-1.106313281906823,0.41718173,7.2352266,4.122386699046875,-3.445335134516513,1.7878191,-1.6985375
HLWYWDKPDYST,-1.078003382152198,-0.09471560311977038,16.670988,-10.408108,4.097622821751516,-0.41300494131203286,8.375966,1.4925263,-5.711274736206913,2.204561535202933,9.410252,1.4197459,-2.3910608749977174,-0.7553158231042367,0.09788496,5.1171002,-3.4452593845998285,-0.2805260899086661,12.291091,0.9621356
LLAGSDDPDYAA,-1.1828159490552814,0.2703292158269226,17.549644,-12.802242,4.3339039746336105,0.4262754527409293,8.465164,1.6272947,-3.8837817941813446,1.5302247417841686,9.433252,1.2560314,1.3557308786078284,-0.8655248090524501,0.8647541,5.6704826,-3.025773977884103,1.352597088437566,13.819241,0.9905981
FYQPWLSWYHAK,0.37814987812521694,-0.34425881684991466,5.4391537,-6.062163,-1.0245768690738764,-1.3247120624193787,4.5814037,6.3390174,3.180878343164442,2.848719179394701,2.4315908,8.798479,-1.5833382640239644,0.394101055267621,1.8915257,5.719503,0.9847111548615228,-0.768096388181811,10.734789,0.20806724
SFANQPLEVVQM,0.28653805640927804,0.22624830880036598,14.866218,-10.64637,-2.083430870424794,1.6929122610957386,5.47068,9.206436,3.0108743437453,-1.2149189970764656,-0.3989473,2.570819,-1.008558142378862,-0.35223123248034327,2.4296417,5.694195,1.4022604571304327,0.7837720086345666,9.568105,0.0019494754
MRTALDMPDYSW,-1.0725934125848584,0.00022467362772793083,16.586695,-10.472867,4.059279226621888,-0.2816619805906558,8.721284,1.4041046,-6.130127188674275,0.06036147403449226,8.639,1.7782613,-1.4552699655922898,-1.282668271415327,-0.50290734,5.685436,-3.665250474154592,-0.2538382910325633,11.834811,-0.28335765
WSWDVDTRDYAW,-1.1405895789789964,0.2114267885545623,18.06334,-11.860476,4.225594164199951,0.11625246808309553,7.7673216,2.254812,-4.124812546048916,1.6549983152912617,8.94133,1.8573542,-0.1833892807492018,-0.7252638750207895,2.494687,7.603061,-3.3970761484058127,0.26334789412418663,12.607785,-0.67778194
HGWYDMEDYAYR,1.3853584488441357,-1.0937748644019916,4.1404014,-7.05536,-4.5725370841715804,-3.5130691539231877,0.7451098,2.3831525,7.689209946144419,-3.9812308093317097,-1.3872063,2.2116206,0.35511971019248373,0.6251793677937048,5.089352,2.5544608,4.726206365237258,-3.3135209485662362,2.638001,-1.9317317
PYFDLQDYAYPS,0.4414505789714019,1.6053396448316446,9.837882,6.7594223,-1.030229149036428,5.024518236672769,4.511301,9.22624,-0.7009453579750731,7.694229315722528,1.5157365,9.8344755,-0.19633299330911594,0.037370835932072945,5.018202,9.583287,1.1374912985135601,5.066657181886223,6.6971245,6.832226
VGMFDLQDYAVV,1.3756058151675683,-1.207530132256062,4.749395,-7.0501747,-3.9852315048866913,-4.361325493122892,1.1467515,2.3707247,7.211051258193144,-5.395733268033811,-1.6158936,2.539304,0.43277242097767804,0.12994780544495296,5.0270243,9.5529995,4.319313806955513,-3.6652758605732445,2.9246535,-1.6263808
WFPGQDVHDYAA,-1.3726978298518326,-0.11615534629013986,17.897978,-13.779071,4.074921903525124,-0.49993159381197233,9.997013,3.2298732,-5.498930172841039,-0.8601491430254744,8.160791,0.5665008,0.5687109036936023,0.6483892237794457,6.9916525,5.7788506,-3.7780164181621343,0.2601140632365679,14.065049,0.91072446
VNRVDLEDYAAG,1.0690012683688144,-1.325354287596278,4.330644,-7.2267137,-3.4629278815122047,-4.541909712343733,1.0576147,2.2482548,7.160269230163851,-4.655215272528963,-1.341049,2.9823146,1.511767734366706,0.315002459305035,5.4985876,3.965539,3.6730096806516914,-3.5716872587225716,3.0132349,-1.3188274
WAYDDDMTDYAH,-0.9161829997783872,-0.25285396556269657,16.877462,-13.34971,3.504604333569381,-0.9699968341370463,7.725146,2.5415654,-4.130218921070438,-1.4702482385289064,8.183519,0.075844005,1.0562159102734185,0.23718626126202577,4.458143,6.620511,-2.738401292438404,-0.9598614849509561,13.957946,-1.009223
FWKVEDVTDYAE,-1.3444037615381796,-0.1997044940776617,17.791483,-12.98945,4.285388943442565,-1.0399158255464855,9.226016,2.7160995,-5.895158972720273,-3.4633586356637878,8.144875,-0.57951295,0.4527559095081415,-0.2948056562012439,3.9294908,6.4178357,-4.157777025791962,-1.0653371518450878,13.929618,-0.51459163
WDFPDDVDNYAE,-0.3330250820872659,-0.8955382491337277,17.1596,-14.088966,2.3470489003028647,-2.837799917297767,7.481005,2.6791205,-3.66748784935472,-5.305768552427457,8.545388,-0.2760709,0.008809616684185704,-1.3286352112635194,0.06939745,6.085808,-1.2139563043904027,-2.7890632510248055,13.986524,-0.89502084
YVFDGDAMDYAD,-1.1472888521675382,0.10094203227056453,18.046925,-12.152453,4.189700663509854,0.1167114174819184,8.577548,2.829137,-5.011095299349527,1.6048714306493546,8.436525,0.3822237,1.5261090203037126,-0.5605674237658459,4.231385,5.7826676,-3.1810852249870036,0.2869606454984673,13.895265,-0.69482386
VQWGDVEDYSAQ,0.8754677661108333,-1.1100537180637788,4.51895,-4.985539,-2.6047072195633967,-3.703932351866387,0.9571334,2.7380795,7.834873034976927,-3.22981095823449,-1.0169154,2.3448653,-1.0274949910776023,-0.7016359975312699,3.873439,2.682087,2.839407231632449,-2.5221747065896682,2.468683,-1.1081482
FTDMHDYAEDVA,-0.13393615490305613,0.47743796955347645,15.374893,-3.107029,0.6585940411004624,1.513453447660087,9.914127,7.5815487,-2.266293111388748,-0.0014188870490130753,6.0198903,-3.7857237,0.8560996465641023,0.9160289559749293,6.1219482,5.9165907,-1.2263313930820565,1.1132500111697066,8.103247,-1.4360641
WDAVDYAARDHH,0.8526665973257166,-0.3067407058606501,3.9297745,-0.6545169,-2.427868411469721,-0.7816906758867213,3.500612,2.499094,3.727767052961452,-2.9354575931808666,2.162609,3.278577,1.660347150647294,0.3802588405993579,2.708282,6.5083,2.9413256337486215,-1.072125472844452,2.5551255,1.5638386
DYHDYAAHYFVR,0.7696033708188609,0.1865002626252214,8.118108,4.7522,-1.5055207828430233,-0.40729565559478315,4.967936,7.176606,2.6107290218694392,1.006091148623117,1.3791919,8.263504,0.7133711735935346,1.562542979870682,6.221171,6.7033486,2.073202331872461,0.9568344101894298,6.336852,5.7863693
FWQDMRDYADMD,0.8403755340568677,1.6714549430023036,10.453206,5.4061766,-3.141441620256062,5.239814398430167,4.5086737,8.730383,2.1889532265484704,9.281996229292012,2.250827,9.4649315,0.8796994911574383,-0.3834340909777316,2.5902631,7.6197433,2.428768872800626,5.521552530056316,6.9042406,7.326686
DMHDYAFNSKFE,0.5041808692162073,0.61945415897684,8.307056,4.908791,-2.1930974545085076,1.4910853313959909,5.0103626,7.1643624,0.5276753933100272,2.2512658311149276,1.3977864,8.397956,-0.5555509124066724,1.4195983475204779,6.271241,6.028713,1.4160350431052313,1.8632324775928264,6.4674973,5.9079704
LLDKKDYAEVFQ,-0.12191894678436167,0.29635247626440897,15.369545,-3.4932482,-0.3699299031731577,1.388083120601931,10.319575,6.9487495,-1.7889585440141509,0.17973459806076914,6.1530066,-2.9624913,0.3599495662105704,0.7020417770835228,3.881496,7.5624685,-0.8115372886820499,0.5549012775943202,8.4124155,-1.7062476
SRLHDLEDYATM,1.4195723783253806,-1.240845468500178,4.8361926,-7.061208,-4.2069909390829885,-4.15152933140796,1.1173145,2.1771047,8.418529166562976,-3.9618010286806076,-0.7573874,2.0853212,-0.13040970045859518,1.7090412836150906,5.6891055,3.7588768,4.816878054581392,-3.5613045857900625,3.050157,-1.8032236
MYRQPDLMDYAY,-1.339093639471834,-0.1941311245112292,18.148361,-12.66051,4.725395214810006,-0.25009819561381336,8.645521,3.121417,-6.419644607544439,0.3308634814822947,7.731958,1.4647682,0.30150002180579777,-0.13650800889778827,4.8936615,5.823725,-4.432730202138126,-0.9897793693073351,12.010546,-0.71216434
PFDAQDYAENPF,-0.14866801661166737,0.3011654516673944,15.79739,-3.3823304,0.5388090643906599,1.5424204438892275,9.831982,6.9021316,-2.0205335994988896,0.08281330644051516,5.8095913,-3.770079,0.8276712286094254,-0.3954962543792873,3.9694617,9.326953,-0.6880155924974987,0.9043260857669906,8.197528,-1.4713823
LYKQQDLQDYAE,-1.4080963464769052,-0.20122509530651597,18.879997,-13.318861,4.715263895303611,-0.5296538188808755,8.786193,3.1959667,-5.989419453432523,-1.70738709256299,8.000684,-0.30275968,0.649310796965234,1.3517521399004353,4.883093,9.516509,-4.689200033745055,-1.0592640137197344,13.536214,-0.23971015
LYDLTDYADGDY,-0.5818689401153361,0.10160030760210588,15.9163065,-4.240302,1.0888030398285176,0.8360877281877318,9.867502,6.8162374,-2.244001151573463,-1.7080701251220602,5.791604,-3.3297837,0.9647059898624056,0.3158821128382296,4.1280394,6.7047515,-2.2103116605297894,-0.3404308659311035,8.757133,-1.3487836
PLDKQDYAFLPW,-0.17472966129665313,0.2881634890469189,15.902733,-3.057154,0.3954175850916829,0.4232885705847609,9.86123,6.948246,0.06196787258173669,0.21487924231886993,6.1406374,-3.005924,-0.060591745317465855,0.07985926332846939,4.652276,8.58342,-0.39196503927904774,0.3343464317902092,8.181385,-1.0998358
DFVYDDAPDYAD,-1.0193537960545622,-0.6869543762888164,18.10913,-11.497895,4.267620688505875,-1.9772942289904683,8.624593,1.4357334,-4.903493313083888,-2.8833342245912674,7.3788824,0.3144834,1.4496777913237924,-1.873776418187961,0.84065825,6.2216873,-2.89392343840465,-2.0362331337550694,13.578554,0.07181208
LMSTDVDDYAAF,1.1545002078524158,-0.839230209436715,3.426565,-6.4397025,-3.5010782101350078,-3.225328880754821,0.8289384,1.8877472,7.5450482505815835,-2.619649503634355,-1.4282632,3.1485896,0.9969954805313391,-0.21418245544992795,3.23754,5.90428,3.557391615056088,-1.6014988276420432,2.609244,-0.939238
GYFRSDTHDYAH,-1.3257308073824834,-0.2184758929041236,16.305674,-12.775454,4.15650402352331,-1.1232846440714876,10.171623,3.1192687,-4.071918747975378,0.33542083942653,7.784852,0.91788805,-0.6766759542068613,1.5834895776869577,6.2063756,7.0114946,-3.8443731219614556,-0.9546171427230566,12.4079275,-0.33108947
VNSYADTLDYAD,-1.3167678220345829,-0.17386061629511143,18.584265,-11.3149185,4.049938534080281,-0.3541994595388765,9.30719,3.361149,-5.9186264434313545,0.5851113358331512,9.3605385,-0.07207367,1.561212376918105,-0.36281457161639963,3.4838839,6.521595,-4.192888615064494,-0.48890472196486606,13.537693,-0.59983057
GMDKHDYAFFQT,-0.1376232226994215,0.26383386630172906,15.666658,-2.8573666,0.35118021921521936,0.2435143255187801,10.059948,7.763273,-0.21580747036241105,0.8258224986012774,6.2223687,-2.9299016,-0.246938942987078,1.571216055793083,7.6491046,6.8007784,0.04796725531372116,0.7136377593568383,8.320471,-1.0895573
LNHFDDYPDYAD,-1.1499439788945085,-0.5641463823189625,18.219505,-11.523921,4.557548711926984,-1.1452870018675285,8.660839,1.7707739,-5.487243126307811,-4.248783458454647,8.469773,-0.6633559,0.5141995987974879,-0.8723596443441565,1.3577937,6.1684723,-3.7175732561858172,-2.2427366042934067,13.499604,0.3110721
VFWYDRPDYADQ,1.3687219839811744,-1.1895922903768037,3.0172575,-5.891862,-4.6403778939622145,-4.69535589789971,0.12307514,3.1130207,4.41335863222639,-5.573239653545836,-2.1147244,2.301578,0.47078945396809035,-1.506451702304638,0.9855418,6.542409,4.176295748012654,-3.530927576088102,1.7997988,-1.7480129
WFRYEDEEDYAN,-1.2369332962980422,-0.23019375514032225,16.923058,-14.326691,3.8779086276571646,-1.1074928868561056,7.7305593,2.5208402,-4.119931119233103,-1.865675752407341,9.699082,0.32156155,0.49033144411983076,0.4154437906601094,4.705174,3.7204847,-3.2228932502226924,-1.088591150233699,13.678385,-1.2366508
SQPFADPRDYAD,-1.3155690251162442,-0.2657720567308862,18.96072,-11.819189,4.358559066678991,-1.4501141654481484,8.169216,3.594331,-5.910004171958364,-2.6398072878427143,8.312463,0.28396696,0.9158699127981228,-1.2362433707367724,2.1357906,7.7562227,-4.143237814945348,-1.242500124353788,13.479162,-0.11647348
MFKFDWQDYAWR,1.3316026315387677,-1.1150595727585375,4.34154,-6.794851,-4.6869783012424655,-3.949286816513872,0.23068783,2.2198784,7.3755826283927375,-4.5905818037546124,-1.4020461,3.3434563,0.0025598725069981847,0.2982555005264412,4.215499,9.953189,3.920078871806797,-3.6412794221240485,2.579691,-2.373554
VMVSSDVPDYAS,-1.3536757003653057,-0.21751129928770394,17.734491,-11.990565,4.922938040441456,-0.9038200059243202,8.459828,1.7161586,-5.370586221009974,-1.0710060763265017,8.021476,0.22413287,-0.9307119388700306,-2.888935566609897,0.34932464,7.1241775,-4.007646063218555,-0.7074154503065145,13.382157,0.77914995
ATVNDMPDYAEM,1.3857887854429995,-1.1891312599482067,3.7966013,-5.57968,-4.867999148197506,-4.149949142372375,0.015995514,3.1549673,7.739204107885561,-3.8953178643493875,-0.7288685,2.475598,1.0195211431744393,-1.4991648168808074,-0.5378518,5.444217,4.882446004976655,-3.556850167298223,2.0116782,-1.2080752
KFNLDKHDYATY,1.2975910579986982,-1.1016175595225488,4.166596,-5.6986713,-3.936796948009421,-3.3007710947918643,0.38871434,1.668767,3.3902085218979594,-5.251157917067295,-2.1678996,2.4802809,-0.26168178436061507,1.7069897570309673,7.7240653,6.779268,3.5154446942071713,-3.1870698351849063,2.1454651,-2.2758229
YTDVMPYAYQPW,0.501396394927507,0.09497090553095515,15.670182,-3.3585353,-2.1302636941460267,0.7116566313288065,9.900193,6.9788876,2.1604802754792938,-1.3409579861216898,5.96434,-3.6239505,-0.33135852982990815,-0.9933604849896195,2.5090652,5.474187,1.345159894285248,0.48493441358600925,8.493858,-1.1163679
YQDLHDYARPFL,-0.14988832235326519,0.23949554420403246,15.864286,-2.8256562,-0.6014059748733759,1.236848129463021,10.124336,7.6207232,-2.0621289194064754,-1.6204642055395793,6.2552524,-3.7227323,-0.4520457783699401,2.1635856737348487,6.8278346,8.028236,-0.23781215665293648,0.5638055937843083,8.273141,-1.0544652
VGDVKDYAERWA,-0.16285365665688373,0.3507619398121986,15.639554,-3.3054814,0.12562176358130017,1.871592285293112,10.3306465,6.8297086,-1.6480513158958838,-0.7606222862150809,5.802909,-3.8838086,1.0278265366766468,-0.4313073225029969,3.6135318,7.492901,-0.903768476375531,0.9043958498269873,8.468333,-1.6346259
GFHADMPDYADA,1.3664788744674645,-1.147399922919925,3.2135813,-5.8354673,-4.51761459674623,-4.486851972591765,-0.07945194,2.971213,6.509805097843445,-4.873899244930145,-1.3262889,2.3601658,1.7831891228799832,-1.3066123306657116,-0.24133779,5.661209,4.530685135141679,-3.4440911978183566,1.932476,-1.4266193
VNFYDKRDYSDF,1.170999714946943,-0.9594503266359004,4.0976677,-5.0441637,-3.459158063114743,-3.412497270141924,0.58688235,2.4849715,5.791681447200694,-4.341221125841991,-2.0088973,2.3481696,-1.9855657290100803,-0.4597811876660009,1.8011241,7.499426,3.3775614793573028,-3.4948945259006607,1.9898144,-1.9849689
KVSNVDWQDYAW,-1.3291263604144685,-0.11362725825414577,18.740726,-13.1359825,4.673712460397203,0.29898650591060927,9.814105,2.2278953,-6.648348874458194,0.7461935209126705,8.085231,1.8995004,-0.07840721295993677,-0.48091010810373197,4.173484,9.899956,-4.195916383108133,-0.32549051902750853,13.142034,-0.5072665
RFFMTDSHDYAY,-1.31578592393059,-0.1958719954061125,16.195688,-12.758087,4.096497853273824,-0.14228104721775722,10.208129,3.190131,-4.707637819066258,-0.614157028365254,7.908135,1.4516287,-0.566732562764866,1.2489128854291867,6.275467,6.614948,-3.929104746591678,-0.6949401695098936,12.463897,-0.17617667
LFFHDAGMDYAA,-0.5373443363596139,-0.4422575689481762,17.238762,-14.24569,2.0119821620736107,-1.427763674445245,8.077564,3.085561,-1.6826962978116462,-0.6352753446023407,7.125756,0.4368764,1.4001765823196273,1.094448744089249,4.3139057,5.625955,-1.1247241031459814,-0.2988469273209809,14.398992,1.1245795
HESDWQDYASVF,0.9117034718458779,1.562340054204753,10.456291,6.756227,-2.521333964737805,4.830755618744495,4.665639,8.707473,2.7950147915446704,8.773025780112272,1.9904516,9.365263,-0.5959702701763899,0.06970943101936747,4.2108655,9.839489,2.6005563101162843,5.101270180530765,6.1144714,7.318337
SPDLMDYADMRL,-0.5889053365608361,0.2066652196933777,16.144014,-4.013036,1.06120298222903,1.4854826651150073,10.345377,6.978921,-3.3841284984416213,-0.08813759883946115,6.6148105,-3.572125,0.35467366363974256,-0.5497021063675605,4.75225,5.9209185,-1.9214025714911005,0.5517402665255536,8.269736,-1.5489566
RPLHDLADYASP,1.4202219997919274,-1.2959724999363782,4.9367046,-6.7022967,-4.638252867284302,-4.040824735813366,1.274875,2.7902875,7.125936078883332,-5.196769839389378,-0.93254703,1.8604121,0.3416570567018665,0.44295293491160126,2.9985135,4.3784404,4.865305923241527,-4.038258811174861,3.1523936,-1.6822909
DQDLMDYAALHP,-0.027558100529608352,0.5811199818651634,16.465143,-3.4144762,-0.7222997019406243,2.534530389322831,10.422299,7.177621,-2.262905920628474,-0.09245768402872351,6.799927,-3.6308353,1.2024644839165302,0.7458132626531822,4.8596177,5.9248934,-0.6799061871837141,1.7912223372286913,8.047487,-1.4014664
NHFDMDVQDYSH,-0.9902057630860355,0.2636499057566881,16.022276,-11.136993,3.454211671426222,0.14439718189717177,8.345184,2.45208,-5.46668159907629,0.5543151618016284,8.016979,0.9870486,-1.9312658141610535,0.21909099306452198,3.2883513,9.5808,-3.370481670950296,0.6650791874229144,12.296314,0.7897171
WLNGDVRDYSEP,1.2142266915031898,-0.9238126438522429,3.8134964,-4.818028,-4.132142700963189,-3.209307744363189,0.9570866,3.0773625,7.730282120546867,-2.3039362446862772,-1.5095588,3.1317465,-1.9126636994422026,-0.802639633988785,1.7720318,7.509781,3.509591144591962,-2.6756821343889645,2.0804672,-1.3403126
WFLTQDLQDYAD,-1.421149114932613,-0.23919281398449777,19.178076,-12.682067,4.8542760074236115,-0.7003395832838194,7.671139,2.61056,-5.836867916769725,-1.9487219345961957,8.094917,-0.09129627,0.6931857505254418,0.8693279459772089,4.7775073,9.567591,-4.665423942318301,-1.1533965797405303,13.390327,-0.31690082
HAGMTDLPDYAA,-1.4517123310504785,-0.15788601547937192,18.072384,-13.22362,5.342577501083913,0.01324847409956935,8.239907,1.9591117,-6.441636121632005,-2.3238496352540636,8.012098,0.38910106,1.4804383606551241,-0.6358459868909196,0.9681312,4.4044623,-4.311802464961044,-0.4992407412012669,13.875548,1.1026137
SVPKYLAAYHMY,0.6718833775588992,-0.20725016596675014,5.6435494,-4.3621545,-1.7350162496962034,-1.1666189133724598,1.562878,2.5041227,4.762257609123807,1.4144255739413614,1.2567197,8.205845,-0.48385239940230185,0.11424489785452843,3.6226726,5.318942,2.273014375457962,-0.4979462206365879,3.4092484,-1.3814188
SRYQVDLVDYAV,-1.3368419563768528,-0.14184824875415172,17.629103,-13.232662,4.498407396563088,0.021613487059785018,8.937541,3.5596862,-6.485868424589795,1.0384575339379372,8.341893,1.1841816,0.11233615254373654,-0.3851304132789697,2.142906,6.376877,-4.20114348081151,-0.16105341351979965,14.24578,0.72797686
AFFADWRDYSEY,1.144768541618929,-0.9406048341243367,3.9976256,-5.284201,-3.524494041545316,-3.555378738744187,0.46277842,2.6255744,8.69722573161407,-3.409339419279427,-1.3157204,2.245904,-0.6877052839273902,-0.1440286047240065,1.9618257,7.4922967,3.6191417131293546,-3.1309446564162213,1.8448143,-1.9496276
WDLPDYAVPPMH,0.8600132398240478,-0.46696954711188493,4.04896,-0.6094924,-2.673905494577068,-1.4506416116990761,3.467508,2.8146038,4.625308514695445,-1.1894902844702542,2.0736074,3.0770366,-0.34233830943520255,-1.8595310801833653,0.844246,4.2150626,2.9346682858173363,-1.0018856546263593,2.8823884,1.2526145
YQWVDMPDYADA,1.3539839126674438,-1.1636499494670542,3.122465,-5.797343,-4.464687331974371,-4.658857979549082,0.20285614,3.0430844,6.875439290414026,-6.301413373733389,-1.4915617,2.1899693,1.2787787231795624,-1.9147987806632791,-0.38957396,5.5898113,4.291694093577789,-3.6876684609166137,2.147817,-1.6309052
WEEDWEDYAVRV,0.8880836359317733,1.6126876426124626,10.786292,6.5980697,-3.4934960489660596,5.019420742720639,4.8054633,8.439485,2.1505885092876618,8.472409423301432,2.0657845,9.881183,0.5747964451841681,-0.2268005586370181,4.0890083,3.8516567,2.1701766136473193,4.850317939418626,6.202372,7.661349
FNVMQDHEDYAN,-1.236451610724496,-0.22128475780056317,17.333105,-13.490629,3.8996086089942783,-0.6256533366350295,8.518943,2.335188,-4.7228809632908435,-3.102710983653822,9.313896,0.32163203,0.36350167350411755,0.5192919067379521,4.5727677,3.517271,-3.948095371169644,-1.2809374456473162,13.644207,-0.24107783
DVADYSDQFSWP,0.6864573324222052,0.9478961554316755,9.108211,5.603596,-2.350824644865386,1.701783507233826,4.816558,7.674344,4.14943512109623,5.149322155206514,1.493122,8.54398,-1.4694676835727793,-1.3894197966536366,2.6205637,5.0212407,2.5482147737617207,2.7363882204937062,6.4997807,6.181217
LSMNQDMPDYAH,-1.3382979491288194,-0.2227330143742138,16.85957,-12.170615,4.859897192027411,-0.3051456220224539,8.942753,1.475471,-4.930752382386157,-0.5073890876492161,8.168909,0.13496129,-0.23782183620627678,-0.6461533384347582,-0.5556688,5.4641533,-4.09593583861358,-0.7121261369281756,13.136976,0.7838946
WRMDLHDYSHQD,0.7791042692556533,1.4436239239461728,9.013166,6.547476,-2.074725354791607,4.544170003379205,3.9331672,8.621409,1.857155574703775,8.014549567352464,1.8874542,10.160104,-2.4876765527049467,1.9174281234878598,7.213746,7.5529265,1.5245738150210477,4.2494125321936504,6.975101,6.76408
VYKQNMDWEDYA,0.6233488914711118,0.8095570756811995,9.995253,3.0462842,-2.3287964298094153,2.1130304217571214,6.3800735,6.881395,3.8752595131855774,4.4295951369373405,2.8492413,7.588999,0.505682400587426,0.015027090890831875,3.9898975,3.8754413,1.8483966843644666,2.4958089363832183,8.460756,5.155935
AFDPRDYSDAYY,-0.3040918505606876,-0.021885978815291696,15.0713,-4.5861287,0.14358028752313637,0.04007892146497608,9.880145,6.481969,-1.4883928734811298,-1.3349034251982743,5.830647,-3.3566601,-0.7355080736279042,-0.7061883724615741,1.8560771,7.5457892,-0.8666016193382824,-0.1447763565854885,8.94204,-1.4539236
KQQFMDVHDYAD,-1.441230201730704,-0.21344664797256122,17.006123,-12.461571,4.378751107738972,-0.6011621357312502,9.914772,3.4068666,-7.295390279952541,-1.5619169075664938,8.571079,0.9192123,0.3559699211622081,0.8234966371678906,6.8939624,5.657813,-4.486498119820566,-0.4349316291565872,13.077029,-0.21645379
RPDYDYADPLKH,0.9682964667793232,-0.6426269783958928,3.7273629,-1.4513261,-2.472076136788942,-1.3923424822938777,3.0462153,2.1063154,4.186034773488067,-4.210113569447223,1.3882318,2.6013265,0.3624947986631816,-0.944104831762858,2.9287682,6.7807474,3.0516691329946064,-1.7729462167393073,2.4866135,1.1107382
KLLLHDVLDYAA,-1.3167475254784058,-0.13359866355354555,18.287539,-14.054811,3.844642696644926,-0.5842485210560032,9.0683975,3.9239624,-6.627673737933217,-1.1253974544658263,7.4041924,0.9043382,0.8009801198540526,1.7311401702750502,4.4780216,6.713618,-4.25307511439967,-0.5862238286362592,13.85222,0.6373646
QNDLGADYAFAG,0.3826010891880865,1.1283697015373308,10.943022,7.1549563,-0.7079993728764762,3.7592735155192742,4.710415,9.246855,1.8542863795689943,2.9576895594972274,1.8861461,9.332819,1.6579907514785672,0.5741660958281584,3.3060846,5.0061812,1.067438211336849,3.6700537470877763,5.686978,7.4515047
WTPNDFEDYAHN,1.3381542879938697,-1.1051719997628229,3.7989337,-7.29092,-4.642433077728043,-3.267305869531869,0.10006973,2.2995038,8.442253901636537,-2.191163014746501,-1.201236,3.1896138,0.07387578378667091,0.2789165908436265,4.353266,3.9799383,4.858240591312657,-3.1063688176816204,2.6930566,-1.8739295
LAYSWDVHDYWS,-1.0664759051515755,-0.07027770438701471,16.5949,-12.674513,3.088571197393961,-0.0016814058043813976,9.763274,2.592069,-5.777781030842928,2.3351899580387294,8.996153,0.59755576,-1.8826451649006417,0.5216917172047102,7.142568,5.8622293,-2.8429516524643996,0.14406572306571488,12.339537,-0.026522635
FLDRHDYAYLRQ,0.05324005473001243,-0.01316983028791772,15.948436,-2.6937466,-0.798869261071996,-0.6219343063727445,10.116718,7.7952647,1.2683466894361506,-0.38680699358627674,6.155906,-2.9371872,-0.1956858108662632,2.0725099304545846,6.109725,7.4133763,-0.07281544939968004,-0.5712952884285877,8.33361,-0.98183775
KLVDEPDYAAQM,1.0947635156515876,1.3879021892302708,10.187478,6.202921,-4.479463155247106,4.478400830787738,5.207245,9.243048,5.372478844350521,5.371058742418439,1.8157905,10.2804985,1.2824603968236081,-0.9924587909921355,1.1629357,5.6722617,3.6931550405582847,4.309626383852164,6.364325,7.8762975
LDSKKDLEDYAY,-1.3082564563694006,-0.2508492910897078,16.662292,-13.57287,4.442344303319583,-0.7631241451682252,9.137703,3.2500918,-4.3633645372710275,-3.074559121784811,7.4502573,1.5426282,0.25908610347714783,0.9829237613922623,5.8583307,3.6348233,-4.279119402560259,-1.4637207812452389,13.741778,-0.45657083
FESDLWDYAQEG,0.9107882541620228,1.6211833802212217,9.799064,6.488234,-3.7411293867794204,5.107195322663176,4.0637817,9.071875,5.175641322858653,8.320657194869991,2.01184,10.056841,-0.178328366589765,0.4289690296201417,4.392262,7.2455544,2.7527495231525965,5.110298958330731,6.4183846,7.34244
SVFYDLHDYSHF,1.2203874994325346,-0.9938790087840705,4.9375615,-5.258994,-3.888354350657234,-2.943778927450586,0.17918836,1.611637,7.8578904689586615,-4.677412896759785,-1.197188,2.0723777,-3.1652807420069977,1.8429291046162797,7.3240623,7.6343427,3.9322866096768445,-2.7351390301206737,2.0444682,-2.3171525
MYKEQSYYADKY,0.5973263790418001,0.9615471970219441,10.57019,5.285442,-2.0816368872897537,3.7957002834484688,5.1597013,8.673063,2.6528230102660553,4.508647989734757,5.6441665,-3.1417809,-0.16319648568659528,0.09361170561235535,3.4745822,6.7069693,1.1812193517609895,2.349901065046528,7.402511,7.2008815
QQSDFEDYAAQQ,1.039120143270065,1.3632587035318324,10.597921,7.2636633,-3.6489404523771105,4.179946207334877,4.705656,8.749507,1.8459287868597434,8.095200988834812,1.6713835,9.395929,1.0978212805838576,0.3883357082323731,4.4498796,4.067057,2.852882305879368,4.780898674409885,6.0044255,7.675517
FARMLDQQDYAF,-1.2649998423224404,-0.13201543733989,18.680841,-13.499783,4.265530818302233,-0.7953673679605694,8.480941,2.7269487,-5.796206179269764,0.8510227756565214,9.278283,2.015058,0.8616598331929679,0.8497150007665152,4.2581363,9.174027,-3.8145892851595824,-0.13707758233713116,12.68323,-0.08180418
YDMEDTPDYADM,1.4593649886452948,-1.256322276201292,3.2435513,-5.708709,-5.008006022340431,-4.736142985533731,-0.0067557953,3.1330073,6.427115379497755,-4.215268071174974,-0.971479,2.5516756,1.0552102680679967,-1.6290078119826974,0.78478813,5.3319373,4.799475957499036,-3.551893360395378,1.9728662,-1.1245884
NPQDWLQDYAHA,1.2070207643091293,-0.3907373701020694,5.0597982,-6.5116186,-4.165024870279233,-2.0364879227616743,0.55622685,2.3932498,6.031016798893179,1.3887623613022948,-0.55585676,2.7431865,0.7017109032773508,0.6851683299684478,4.6544633,9.616804,4.092362467861814,-0.5789087636487675,3.0066793,-1.7952536
WEEFDTHDYAFT,1.3465625717069278,-1.1081626482371003,4.4608746,-5.7532763,-4.993431508800535,-3.073854228708862,0.10595576,1.9880273,5.0116748246438165,-5.275630511990253,-1.7941946,2.9847333,-0.17657098085729256,1.4910272326635408,6.2751417,7.016675,3.896176783036895,-2.7855523190439575,2.5212636,-2.1908283
WRFDVPDYAQQG,0.8900466478061764,1.6639097385958104,11.241997,6.387417,-3.755976414911101,5.982908594461354,5.194002,9.193108,3.9877415891408594,8.144123813225008,1.8429421,10.186935,-0.02832369447919861,-1.7231986705569555,0.2930977,7.175456,2.3800515336559993,5.145894888815475,6.5696154,7.884951
PDMMDYADRGFL,1.106041261553111,-0.7648164008375646,3.4297822,-1.0631483,-3.3363928197275445,-1.8488430653876695,3.322063,2.1855314,4.731755670767059,-4.947436020134704,2.1323826,3.0795133,0.6418280810861201,-0.7314402990991091,4.403965,5.8961773,3.8614702288867524,-2.4736133781686016,2.455723,1.19868
RFFHQDLQDYAY,-1.385900081556944,-0.19528037050791197,18.815382,-12.744443,4.75691066715878,-0.31921729744093585,8.992985,2.531477,-5.58851142102073,-2.2115624827066442,7.401641,1.4687201,0.0955223112247365,1.5737216110904508,5.024744,9.48774,-4.722369494081552,-0.9461521264280764,12.94754,-0.084111944
LHMDSMQDYANR,1.214058015451379,-0.4339370828402823,3.303505,-6.5724645,-4.256679245784742,-2.445814787476099,0.9102886,2.2332344,7.054637690983118,-2.023447103963336,-0.90868515,2.9346662,-0.037685727272772876,0.7577096310208628,3.7445025,9.023309,4.236736939933687,-1.477743655707155,3.0894048,-1.7137183
KLWMMDWQDYAG,-1.3208311040352503,-0.15594099600952402,19.00022,-12.748354,4.573896630340327,-0.3974865284080858,9.805444,2.2737923,-7.278924521495881,-1.559811490760222,7.758754,1.1911488,0.29377020234929996,0.2754838600996506,4.2896376,9.89653,-4.131836944568019,-0.6434437620129895,12.527373,-0.44967747
KAYHMMAAGGKL,0.440673988762077,0.11257201211762065,3.4596086,-1.633905,-1.680766347918145,0.8121477779835219,3.167826,3.409169,3.3858510830637507,2.2238064857181348,1.4331905,9.086308,0.5627707856376156,0.8382235548841644,3.758748,5.3808002,1.710363620619961,0.7872500993586976,3.354025,0.24861594
DEMFPDVPDYAD,-1.426237158569167,-0.23610286276829476,18.36078,-11.774161,5.4389661723534015,-0.5179886366528436,8.615467,1.7487526,-6.589475265032184,-2.703717525393838,8.190342,0.69766116,0.5812494908284351,-3.0274662019130636,0.46541026,7.023453,-4.306801146866728,-1.1542803796616201,13.74433,-0.78985626
QMDLFDYASYGP,-0.5674478459406843,0.22840002152631872,16.280703,-3.4044194,2.0199097633779393,1.1366026461784289,10.38474,7.221571,-6.814287157177465,-0.09295632435006175,6.9042325,-3.6453836,-0.24830781590336598,-0.018242801524039492,3.8565335,6.3597484,-2.0153260600195697,0.6047633395539616,8.071131,-1.4380473
EWFVQDVGDYAE,-1.3456266159046084,-0.17884509008884195,17.625298,-13.449299,4.499204276568541,-0.6123599575810482,9.337063,3.0575864,-6.176467369450777,-3.2759508313415537,7.4136357,0.7754586,0.47266361563370257,-0.29260260248472536,3.2069352,6.0770264,-3.9147118630399684,-0.9802182794996251,13.554637,-0.60420495
PFHKYDRVDYSD,-1.0770979137272672,-0.05679279004238353,16.918655,-10.627662,3.578030785204457,-0.4780345328700768,9.5321,3.722655,-5.429324931688278,4.178084548595615,9.715352,1.2785158,-2.0404135889108903,-0.5987579945961066,1.8421305,6.991749,-3.569386261331413,-0.2684945471969854,12.365616,0.6720767
LDFDDEHDYAQP,1.5460943334981732,-0.7574910386952386,3.9950967,-5.5491085,-5.156449320518508,-2.182295057595041,0.6607674,1.71247,5.5813965968750185,-3.04057646310433,-2.059261,2.726409,0.1377233199279163,0.9034148448268425,6.1358294,6.465569,4.57354382740613,-1.7754363129301898,2.6701097,-1.1144211
TYDLQDYANVAH,-0.5112268992942401,0.11237083041408555,16.31507,-3.2442002,1.624250903610155,0.6435382176755804,9.830201,6.9778256,-3.6814746113757457,-2.326278345446952,6.4244337,-3.832637,0.9083345377117777,1.00975849931118,5.076899,9.641065,-2.0090515543128418,-0.2608342702737548,8.079223,-1.1990329
LYWDDVEDYAEH,1.4772871599066728,-0.8700957328466227,3.4719431,-6.9736285,-4.7738111797943255,-3.32209689088782,0.9646073,2.6511204,8.609363425627835,-2.079249323521647,-1.1841644,2.507467,0.592580370794059,0.4118075810242902,3.76379,3.1214085,4.762147430978796,-2.433280683067712,2.946498,-1.3625056
MAAEDDLADYSE,-0.8730492500016774,-0.47012370660199687,16.748209,-11.146364,2.8168775000611324,-0.7722704486538793,8.350394,3.7402422,-4.728503189273571,-2.0154636923500804,7.9074974,-0.32640785,0.7694345999217045,0.0058879262532729485,2.8240185,4.3246956,-2.393389625726132,-1.616305155332261,11.94874,-0.41883406
LAYGDTPDYSDN,1.1899099013052057,-1.0219790729531417,3.7250712,-4.9457974,-3.68042231334493,-4.203880137244468,-0.06799301,3.027228,5.55744431368862,-4.198732231610561,-1.2025713,2.555313,-1.3404087177257917,-1.2613483930687905,0.6592457,5.3380055,3.4926575289192825,-2.7026658810454527,1.9456242,-1.0220935
RMLDVHDYAFWN,0.9177191899789713,1.6208192728808555,10.447355,7.4349675,-1.9310438555048137,5.368545728336616,3.7799597,8.797309,2.528674729810557,8.28786481153179,1.2541221,9.746163,-0.3364960522912628,1.397762026168847,6.930009,6.0002007,1.867600272800321,4.522084631026591,6.627314,6.9205427
LMDLHDYSAFVR,-0.030844679840838354,0.5350191157655134,14.892296,-3.3021333,0.6277515374484284,1.700151770375604,10.171833,7.680388,-2.384276694760691,-1.8695330456713701,6.442912,-3.2952085,-1.9408055544322054,1.6802005957738382,7.2052765,7.7483144,-1.1890298649299507,1.0654041453994842,8.29708,-0.9835832
LFMKDTPDYAFG,1.3743681839348443,-1.1573494876935857,3.4385452,-5.5539556,-5.05917492263373,-4.501195460329141,-0.059572782,3.1642084,5.747418279340462,-2.7019117295366075,-1.1638168,3.3138266,-0.048052884761860266,-0.6674185830715521,0.66507727,5.24984,4.496631153298686,-3.330018088129294,1.7099292,-1.6233836
YNFDVMDYAEPL,0.9087182189914975,1.610551315231465,11.061421,6.7117405,-3.153523684794674,5.351747947511133,4.372807,9.192493,5.108003828197684,8.104313998108779,1.8373857,10.180651,0.3457728000252302,-0.30622193196839037,4.275419,5.3804007,2.783997631355873,4.853305017882899,6.420922,7.485691
LNEDRADYAAFL,1.114321497060063,1.3365446665904888,10.928993,7.0956426,-4.192624737708521,4.2085587702584775,4.8106303,8.68103,5.482095753191551,5.668990857773362,2.5553057,9.960833,2.0256475497150594,0.7306116334321301,3.2423098,4.8757987,3.5526598034743224,4.979762529918664,5.93466,7.4219394
VDVEDYADKEWV,1.1245653056831557,-0.7483799226380559,3.5164566,-0.7496653,-3.552012286313422,-1.292916637942253,3.3959467,2.1373765,5.299748053658829,-1.752755395512787,2.1470535,3.085955,1.0672705311736106,-0.9162265375867079,3.7066865,3.1641216,3.7201021034645385,-1.5823380736155341,2.5202303,1.4380528
YWNDDLEDYSYA,1.3598995200345865,-0.5234527949134471,5.1263866,-5.2655926,-4.302480965091025,-1.9517717796166978,0.7105486,2.0600622,8.738100055661176,-0.18353092714495947,-1.042071,3.347202,-0.7673664168039845,0.3209680302537303,5.7920547,3.3789895,4.446320105633604,-1.2282539806017774,2.55633,-1.5165845
FDLTDYADMDNN,1.14861086750038,-0.6677871836742796,3.3860161,-0.711721,-2.799327929742326,-1.9542998974719776,3.381999,2.179372,6.635966769855501,-3.257257743529923,1.696919,3.2542918,0.8460355969383586,0.02801578253216124,4.1504264,6.6315913,3.8777723724504627,-2.101475878831867,2.746273,1.4913733
YFQVADKNDYAS,-1.2804100844860977,-0.1860458295185788,17.367287,-12.322339,3.794754483077262,-1.229151979116045,8.462149,2.633295,-4.992478669237841,-0.4693398510933962,9.627154,1.281059,0.6632050379223215,-0.22531036728645312,3.374551,5.875702,-3.7638696442697324,-0.8644006484734172,12.9375,0.027855998
EAFEVDVMDYSA,-1.0801100223775768,0.025211569644995078,16.153019,-11.955187,3.4803023543786877,0.1667610851235387,7.965677,3.3478596,-6.033791942538708,1.9436673608010642,7.8873568,0.9193987,-0.4328775874503629,-0.7362925306516598,4.234484,5.3514724,-2.691542298429745,0.8459894008993807,13.849458,1.182038
QRQNDLMDYAAQ,0.9839228354016512,-1.309654463740753,4.8068166,-6.5134254,-3.2193740331550322,-4.098539438194273,1.1318733,2.1587543,6.469784387318412,-4.736762780428617,-0.66103286,2.5497208,1.3790185504575998,0.6478844477718173,4.893792,5.8521,3.262093624480668,-3.7718646777256466,3.1375039,-1.6877853
FGGLEVKDYSAR,0.5289178656374762,-0.6694553423160734,4.329037,-5.12782,-1.8868530933841667,-2.7324384759000013,0.8709629,2.5781498,6.425536256839949,-4.252083366178663,-1.2992551,2.6213045,-1.4074748676032758,0.02096955282556061,3.0028315,7.330046,1.7197195429099612,-2.0434478872212853,2.5751457,-1.0302639
WNDQKDYAWNVK,-0.11608298073058257,0.2573953981093189,16.087263,-3.5142045,-0.1322038588214816,0.9341656404134432,9.930918,7.523251,1.5686665037356258,-0.9888761120986497,6.2455816,-3.3751185,0.13259890235309493,-0.12037954707765364,3.5955303,7.631747,-0.05646982342938688,0.5171973321096952,8.320262,-1.1364452
GAPWDTADYADG,1.3778929092946834,-1.2137484427303455,2.877507,-6.227492,-4.387064688504148,-4.072871392693287,0.6486911,2.8330739,4.749397711367185,-6.439572752657577,-1.683358,2.0082042,2.067791851605907,-0.8918114575801401,3.0774493,5.0883226,4.117534572271652,-3.2783830284980264,2.353358,-1.1811477
LRDWADKPDYAW,-1.3682904438737657,-0.16355791891203453,16.764414,-12.106492,5.167840449583465,-0.7422231036788132,8.751042,1.583043,-5.02847789932842,-0.33660312780773377,9.459125,1.734071,0.7532992720143961,-1.1331027260386246,0.28221968,5.1147146,-4.023426478407176,-0.5725186431727362,13.018783,0.31164107
WVYHMDHPDYAH,-1.2799424047501622,-0.19664691165800297,17.127058,-12.273737,4.6390749932311,-0.06644164281027878,7.883291,2.0321684,-5.9108326811448215,1.4391494386930959,9.35751,1.0880035,-0.31044629817805636,-0.09425856797506942,1.0248233,6.25434,-3.571690435176384,-0.316686603680279,12.526401,-0.58276504
SVGHEHVEDYAD,-0.9593635450611541,-0.12096658066879451,19.139383,-12.561658,3.54678284067969,-0.743265506655781,8.858327,3.4409945,-3.532158483984071,-3.545092104390416,7.4800105,-0.00914449,0.33453000085876655,0.21518604354025686,3.627259,3.0624232,-2.689420498833516,-1.1008192269833856,13.88478,-0.81056696
WFRAFDMEDYSD,-1.1378235272040813,-0.11093428190610718,16.955042,-11.51365,3.4538667720955125,-0.9074866487871169,7.72328,2.3476014,-6.800993764020286,-0.5147663009664165,9.211654,-0.37098214,-1.2669712720721813,-0.2146132831535688,4.9025016,2.7658482,-3.5363902649136505,-0.529440294040281,12.575814,0.39256325
KEFPVDMVDYAS,-1.2855320076042875,-0.11452399947942246,17.534746,-13.353345,4.384522929599908,-0.6458175793941076,8.18409,3.8480465,-6.621845266886765,0.6365887949980421,7.863983,1.0162003,0.020026476640601563,-1.0414888951922827,2.5706503,6.042574,-3.6578048171208395,-0.022260605353682655,14.247087,0.4066587
NSFEGDAPDYAG,-1.241324886486731,-0.2764931512698273,17.053747,-12.238966,4.757470975653226,-0.5680114131664186,8.277694,1.6612982,-4.524801318245879,0.2716018147860714,7.6828513,1.0385646,0.4137933415157777,-1.1989753862816572,0.8702959,6.195382,-2.875007309035854,-0.2161458672747625,13.865331,0.6721409
NMNVMDYSDHVW,-0.5297883488316992,0.15314298193882428,14.733475,-4.475343,1.9484146002984628,0.9181877167681164,10.009933,6.4492517,-4.098935288905976,-0.329329021149516,5.9620395,-3.9302719,-1.9726951685584273,-0.5320196577826236,1.7732396,7.0832677,-2.6925799005215985,0.28088494873071373,9.262918,-1.137766
HKFQDAGADYAA,-0.578726709272057,-0.4212100637667879,16.720184,-14.396889,2.1507553727076694,-1.3351945374696297,7.7894797,3.3062341,-1.0666930743875336,-1.6031624083209621,7.011844,0.6908677,2.5150396110209656,0.5537786273099318,3.1752026,5.3670864,-1.2502054171859516,-0.6322073689299506,14.534186,1.1666875
LFANHDLQDYAY,-1.3890699357732532,-0.20749067047135297,19.330027,-12.894517,4.40227315649554,-0.5382803426953379,9.274855,2.829672,-5.54864981138835,-0.4454028890959504,7.570007,1.7751677,0.6302726172709867,1.8636698211656162,5.025071,9.764258,-4.2042234012903705,-0.6492283950789042,13.024227,0.047069013
YMEFDKADYESK,1.120778868987781,-0.9394917291337566,4.4097137,-5.734674,-3.737827025758351,-2.7035445696838676,1.2840849,2.5476136,3.2995130318365424,-5.216105986126896,-1.9021233,2.5744493,-0.3736974270944413,-0.03120767319231913,3.1737707,4.884944,3.219957738205224,-2.3542759858199687,2.5151656,-1.1593655
KMSALQDMEDYA,0.6132974825372927,0.9834517841611775,9.734052,3.2036598,-1.6144369701099566,2.7858966930997364,6.2968636,6.9735527,0.3677757870921737,5.986345110060719,2.344713,7.5235157,0.8618219643050203,0.4264045175294712,4.986806,2.5513399,1.20982297895989,3.897915322706152,8.371392,5.2707534
PRQWVDVQDYAT,-1.3391963983218347,-0.15113714557198482,18.38079,-12.759453,4.584310956811794,-0.5649362617973441,9.365871,3.9199317,-6.920683238175027,-2.1117014427262295,8.858758,0.13470753,0.370711062338056,-0.8080556038882978,3.3593807,9.773253,-4.1255018811376445,-0.6518367098774315,13.697049,0.4420704
DYDMTDYAAHLV,-0.04756187958107953,0.5570262737138097,15.867812,-3.1478064,0.22332818062951545,2.7725052648335167,10.437623,7.218854,-1.5404639228558246,-0.0072657436749401965,6.077752,-4.041116,1.3727058803636574,0.42453894666834674,4.2144575,6.3560977,-0.7818880030894249,1.5522848633477135,8.0672035,-1.4603473
MDWPDYAMWYPN,0.4228107123536007,-0.5039452398326381,4.181848,-0.97504973,-0.13052393164378445,-2.2871394672585335,3.2899082,2.8942375,2.538843714267996,-3.133663402756255,1.8145205,2.9240916,-0.06944429034886249,-1.8121890843014683,0.40402707,5.816278,1.4434699703910272,-1.7701578770926008,2.3909082,1.7150136
HDVMWDLRDYVD,-1.0439818973798805,-0.14025132127239423,18.167944,-11.465126,4.1519909433172595,-0.3830897716041858,8.944058,2.4426057,-6.960792172807111,-1.700071072671276,9.060192,0.5509456,-0.9563239199497672,0.063168520538936,1.9726372,8.1989565,-3.955061938228113,-0.8262676872887617,13.426245,-0.682124
LAYMKDVVDYAA,-1.3540560209005812,-0.12535068474707628,17.480068,-13.133478,4.486436150776039,-0.37540338795325456,8.298817,2.958226,-5.604860460824634,-2.1907356852310103,7.8186345,0.22293024,1.9558468795308266,-0.24148257765839104,2.644813,6.161932,-3.627993201559284,-0.07381471573264106,14.28233,1.1104455
KYMLDWPDYSDM,1.2076046935152087,-1.0160412844085145,3.6185873,-5.268069,-3.946410321975743,-4.109445357797035,-0.024829408,2.9468865,7.608471257005468,-6.100951917326151,-1.2770932,1.7681268,-2.037774191211489,-1.4083700127034728,0.38448128,6.1400867,3.615810869293314,-3.9349564629139975,1.8294051,-1.6679721
MQLVDAGEDYAY,-0.5392806156483507,-0.5658695586025433,16.560778,-14.2364645,2.29361815840608,-2.2596104156087327,7.9441366,3.1993625,-1.1989363913676165,-4.412941924867592,7.2847476,1.1965194,1.2565452438607334,0.3055907480107722,4.84261,3.8074534,-1.341149379036164,-1.9203232242114976,14.441805,-0.08175632
GMLYHDLTDYAA,-1.3339561793688595,-0.18206090444213843,18.304224,-13.970217,4.321172460553311,-0.6107177196754805,9.213093,3.510084,-6.083061397285464,-2.5204714489964055,7.641357,0.68166995,0.9813795737261616,1.3737628736482617,4.139926,6.5976195,-4.133606941539348,-0.55858885437444,14.160422,0.7528468
KLPGSYMPVDPL,0.3945807207308385,0.21433196712755007,10.079937,3.9873502,-0.49851762865803484,0.6135480531276757,8.142821,1.4908986,4.321507507016407,0.12424802204313215,1.3516133,2.587987,-1.7610487966744701,-1.2006889112931252,2.5790098,5.633077,1.27449721981827,0.5413765070546078,11.992177,1.0193375
MRDLPDYAEHVV,-0.15053300150573168,0.3042702716578607,16.083893,-3.710684,1.4556740462127566,2.054882253470649,10.779216,6.673086,-3.3424308096421633,-0.8961982101015203,6.2465353,-3.6269639,0.1427965144166704,-0.9754312606072332,0.87508893,4.5029855,-1.7323713085694452,0.1122487501129606,8.986034,-1.6058695
WPTQWDKFEYAD,-0.884672731983173,-0.07492541188621077,18.43376,-11.342484,3.1655485043817593,0.19348085044621907,7.9743576,2.3943217,-5.729352797033094,4.641199800189182,9.824073,1.0367031,-0.12676387956115634,-0.47408624758959167,2.929216,6.6646385,-2.9829432612154845,0.5474344302092461,12.873903,-0.7789035
MSYDVHDYSHYE,0.8093599931119055,1.512730578708308,9.405192,6.603739,-2.06101377965036,4.956544642500673,3.8362172,8.793166,2.0471876813614447,8.497814505333524,2.2537448,9.334399,-2.6783687898200124,0.8413227529680292,7.2446446,6.0706773,1.5287360826061254,3.609585877830269,7.3815126,7.1122212
NDKLNDMRDYAW,-1.273400915109061,-0.2555159326055196,17.781965,-13.389967,4.082869522283018,-1.4787081650371783,9.303269,2.9929433,-4.871740151595276,-5.025129691455039,7.881666,1.9445148,0.3195666993918603,0.13969014335747346,2.3769987,7.6047015,-4.003359046644706,-1.3580873829935247,14.086135,-0.19138755
FLQDLKDYSDWA,0.852369091197403,1.5969349386169256,9.191958,5.967399,-3.2302223069568634,4.872726208701525,4.371925,8.255925,1.6564609175674427,10.27056042734554,2.3745553,9.417542,-1.40405890217448,0.41136799358695697,3.1352875,7.994308,2.491549837279264,5.582684860347837,6.9867663,6.7413387
WNLDKHDYSEKW,0.8348319357548165,1.363116776279185,9.28957,6.4901795,-2.62205055315318,4.250472256337402,3.9830618,8.517106,5.43877118774887,5.560669547193473,2.1740975,10.501268,-2.42156912647844,1.0462333597750837,7.614584,6.850961,2.5074794753895784,3.5470887173269317,7.000237,6.766942
HTHYDVADYASV,1.3264262584351405,-1.2230245062457525,2.8360105,-6.5320835,-4.197123556287466,-3.7933656671450593,0.9177047,2.0299199,6.585243527938817,-5.957103458980856,-1.1188996,2.1592593,0.665457365026181,-0.01050366578981416,2.754343,5.2526784,4.266276232644424,-3.396117017323024,2.1588285,-1.2771385
HWGLEDMHDYSQ,-1.1214831627029143,-0.09894891539851014,16.005432,-11.668136,2.9936118583915645,-0.38713714774783037,9.792036,3.164627,-5.618547505070666,-3.367684861671141,7.6124926,-0.004310783,-2.2443127577985296,1.458105719750778,6.6031356,6.1589513,-3.1433581123742087,-0.778005822737927,12.285541,0.5344175
ELSFSNDLHDFS,0.5535518098778016,0.7217724691458002,10.244839,3.0464988,-1.414563546809392,1.7886797646362858,6.1407304,6.8742294,1.0430308173374165,2.573524990140725,2.4358282,7.268452,-2.665395761903367,1.3524943974899974,6.906002,7.803245,1.1939440847832306,2.0377397250139135,8.594967,5.0000143
YALVDKLDYAAK,0.9285042905525535,-1.2959605492528268,3.8793333,-6.5605097,-2.915995155912816,-4.026886939527421,0.84588283,2.6078238,2.6440397215093228,-7.0657733787696015,-2.1085293,2.4623325,2.1092737108502413,0.525093837452015,3.3461185,6.2646055,2.591944864348765,-3.9397270646439506,2.3621335,-1.2547932
LDKADYASTFQD,0.7879056188297832,-0.43842564554577773,3.2725334,-0.11565422,-1.5737099477315741,-0.715782406135765,3.4951894,2.453031,3.1583649967524723,-3.2085885093890996,1.4523412,3.095897,0.8937840135141496,0.16786506552060532,3.12457,4.911171,2.236195212542027,-1.3353415632762582,2.878385,1.4699997
RLGVDLEDYAFV,1.3730939722873645,-1.2075759092696337,4.5630937,-7.1918564,-4.594232740176034,-3.9454922885803416,0.73677117,2.1390185,7.556378870959006,-3.694796161246304,-1.2714598,2.0458746,0.42332748753478183,0.7382847808331393,5.5978246,3.837752,4.680313717781203,-3.0828944884471112,3.1003566,-1.4010106
MQALWDVRDYAE,-1.3850863509693907,-0.1799685067821703,18.440378,-13.018889,4.84497747620453,-0.7577714648758515,9.33958,2.3760576,-7.263103681922288,-1.874961005809388,9.236414,0.41592437,1.03118830658562,0.04401199625531501,2.6561244,7.8876023,-4.5071062865596465,-0.8784364985685705,12.152971,-0.8548973
WAMQDLQDYSSG,1.1525342376796883,-1.0569518521601706,4.7721157,-5.7255664,-3.5854828816348814,-3.7284428743462774,0.19851445,2.341728,7.799579861057199,-3.366018649452859,-1.1986481,2.9582388,-1.5186888455613008,0.24337435468997776,5.2522945,9.212859,3.6963972563883196,-3.3193107393371286,3.0252037,-1.8880049
WNWYHFLYNHQP,0.4528209629464332,0.49648227584078913,6.2015233,-3.9792688,-1.2797362792527442,1.8150279643835723,4.715706,6.317444,1.6373602868694,0.6301503385615391,2.410898,3.4656856,-1.967393728450999,0.8983010726727306,1.8588159,5.6322308,0.7444209146575003,0.34823055664344454,10.928225,0.26229697
LDWRDYAAKDFD,0.8006713258689401,-0.3211498124877858,4.0511684,-0.42997625,-2.2497707715796422,-0.65966956597134,3.5665286,2.547698,4.143644416874978,-0.5989649245924775,2.171907,3.0513253,1.2321534146307673,0.1794348738420152,2.4183512,7.5536275,2.6742759280398825,-1.3383341275241036,2.7355595,1.5288597
VTMNVDAPDYAS,-1.230170578419689,-0.20161306532016413,17.305136,-11.962269,4.671820466393166,0.08723206656142088,8.849287,1.4603697,-5.47280423632793,2.0342761678744443,8.862312,0.5570414,0.5634882119266704,-1.8591396677724172,0.8561565,6.232296,-3.254265309333616,0.15167854286475982,13.596381,0.75300646
RQLHMDKEDYAW,-1.279105018765881,-0.22801151786347024,16.691435,-13.830267,4.211523266843604,-1.0459190032970787,9.239503,2.6904447,-4.289963787843568,0.5308609237064355,8.980562,1.8892462,0.2592723638925429,0.9777357815128181,4.3825326,3.0451703,-3.9748440342393607,-0.7858941626955254,13.078861,-0.71017593
KWYVFNSFDDWL,-0.018569783070065463,0.19086171735750257,16.068905,-13.379185,-0.06411586658156264,1.2299856557759052,9.656113,3.7904258,-1.3429161917505965,4.7216139868086255,2.3886564,7.429066,-1.8324747414383362,-0.07215237718222206,2.3961875,6.079666,-0.5697248240995193,1.1303255754510595,11.91931,0.26932496
YEDMHDYASMFS,-0.13918302810017036,0.30728323533695134,15.288421,-2.660284,-0.3574382336383371,1.1773423533762828,10.095549,7.7437363,-2.3186935126316937,-0.5590613131275919,6.5180573,-3.5921054,-0.6754433744231753,1.0447150447717841,6.1395307,5.949905,-0.6796819607777235,0.6633801852712141,8.499767,-1.216333
DNTTYDMPDYSH,-1.0955429183076015,-0.0820319185812561,16.233389,-10.685702,4.079469968599776,-0.7247083580981684,8.618678,1.3818845,-6.078027830798115,-0.1581087395479888,8.368071,0.9958061,-2.0006201622669986,-1.1883328210260637,-0.4373077,5.781809,-3.287815451948272,-0.35264082651999307,12.562798,0.92715734
DMHDYAALYRQF,0.8107135670649581,0.20824078121302025,8.213327,4.683498,-3.0502280656414364,0.09419803628335065,4.9625516,7.176646,3.824616551327947,3.4847250076447547,1.3574897,8.40842,0.8176498656997109,1.6592605471548145,6.126337,6.0398517,2.6299808587755433,1.7536063149691552,6.342733,5.8619547
LPGWWQDMPDYA,0.5824467841754805,0.8623131065317596,9.511953,2.349242,-1.8473705032469554,2.8899595717878057,6.76086,7.19964,1.5282348712142124,5.14242180126543,2.9053035,7.3070116,-0.10248063826897137,-1.546439435868954,-0.61585754,5.3700786,1.385099306820694,3.093386314443042,8.3345585,4.959923
YKLHDLEDYASN,1.363548800480467,-1.2756814528331768,4.7775555,-6.8769155,-4.353610737839741,-4.123081077500914,1.2819532,2.2162042,7.9359353854886905,-4.152695856473878,-1.1236626,2.2797618,-0.18851433803518844,1.7522164612745748,5.451714,3.8114133,4.637268569685239,-3.794983949389885,2.8924937,-1.8684632
HQFYGDVRDYAA,-1.362788170210983,-0.15014982160100762,17.782429,-13.913187,4.755205500059404,-0.6252650865070802,8.21875,2.9290476,-5.37085029506689,-3.5213992212348644,7.694482,0.7028744,1.0221417440999814,0.2905792326624152,2.6060429,7.927006,-3.8340240138329924,-0.5423408401423393,14.202323,0.97035813
HNEYADMKDYVD,-1.0440616145850061,-0.05732735137657881,17.908869,-11.088724,3.83238061033528,-0.3741333388251213,8.446647,2.8524625,-6.083960678424304,-2.555618458315174,9.24079,0.0065253596,0.4183987800761298,-0.11342753380381956,3.7112348,7.200351,-3.4767977406767328,-0.5574108060600004,13.570659,-0.79061526
GYRFFDWGVYAA,-0.8761360277099303,-0.059242642368643725,18.193289,-13.874616,3.0732908288808454,0.594637958840918,9.590616,2.231033,-5.082198207539094,-1.3102776814828156,8.593316,-0.19457418,0.28674164075345365,0.04188736839536452,3.4281518,5.993196,-2.8815321883950733,-0.37883011119063226,14.033193,0.6996555
YPMDVHDYAYYS,0.5017515265095822,1.6312398083688275,10.85137,6.9940715,-1.102721902510088,5.440519548764857,3.8294811,8.919235,0.6338736314966069,8.056088252573971,1.8747882,9.998132,-0.6727670908218764,0.49510352607650393,6.840434,5.7798924,1.5465606097393647,4.9145568880822355,6.750758,7.0471816
YFNEDAPDYASP,1.3286384832521247,-1.1185696398720897,4.0063267,-6.3820357,-4.875032241397431,-4.285345861159058,0.32048818,3.3203444,5.660540407519735,-3.2764860213010154,-0.8646417,3.093901,0.3574205423937807,-1.5634825402815835,0.74824566,6.078971,4.293594774584726,-2.879029528834229,1.661884,-1.3199916
LTSWWDMPDYAT,-1.3434790101241378,-0.19549532996035124,17.148136,-11.929456,5.024474844636905,-0.5955982405450936,9.017438,1.8154731,-7.558894444434094,-0.5508492793981055,9.220743,-0.07363778,-0.3958297129446419,-1.3281460233851516,-0.58279264,5.3915024,-4.454177362003594,-0.7694405449053455,13.017993,0.53108585
MLVGRDMHDYAY,-1.3207541135017897,-0.20273712659601917,16.10348,-12.634238,4.115000726944795,-0.6196754756973039,10.096496,3.4675527,-4.870306842834951,-1.5839625241011552,7.382973,1.5308392,0.020585784393480574,1.2982488526727096,6.220762,6.04707,-3.9664242569047587,-0.9031793102664545,11.990657,-0.6062546
TFFKWDMVDYAA,-1.3222947178814497,-0.09404282330478624,17.537539,-13.972979,4.399033330426286,-0.42346747727898737,9.113979,2.365108,-6.685057556584957,3.2387626636569435,8.662333,1.0624014,1.029924281746153,-0.15215889595062335,2.7218826,5.990477,-4.019411981448972,0.21088487357302169,14.140693,1.1824279
TGFWFDKHDYGH,-1.0552733239705794,-0.08351475121086639,16.014702,-12.178777,3.5395342515382104,-0.7224862782401653,9.757359,2.9770136,-5.850900769603401,0.557210398072882,9.472394,1.5137602,-1.794203620323015,1.4176398386670972,7.631445,6.8385086,-3.193313941511124,-0.2627357143220209,12.202388,-0.052377306
MDVYWDFPDYSW,-1.005303622488074,-0.15648604688713097,16.788692,-10.337388,4.139764857150408,-0.06749580077669728,8.934917,1.3652905,-6.509867699551237,-0.8612667693116334,8.527937,1.6298374,-2.1448280239679947,-1.885506106526958,0.0029775095,6.2169213,-3.354195361604105,-0.8020764060466528,11.86525,-0.31437346
MYMVWPDTEDYA,0.6039976892290837,0.898049168125685,9.505109,2.9248402,-1.7611078428559355,2.981002553419651,6.361564,7.143856,1.4201963078606272,4.046636113586315,2.8317442,7.203925,0.3914324482999013,-0.8639122473880977,4.5081096,4.241348,1.1589252237445644,2.2646770891681034,8.340383,5.369358
MFGPDLQDYSER,1.2334988172026196,-1.0341760721528253,5.0783534,-5.7848253,-3.862954408255027,-4.098660312965942,1.0494064,2.0467641,7.579113940519578,-3.9149463889882674,-1.5627173,2.7409568,-1.8997976901826519,-0.27018019405697347,5.279227,9.293933,3.6798622128439646,-3.5981667134858055,2.6985464,-2.3722684
NDQPDYAAVNVV,0.8401721802641716,-0.4204972820501021,3.9770777,-0.799995,-2.294412617117884,-0.8253006642912543,3.4125125,2.8467014,5.54000676663534,-1.2997205641793679,1.4843646,2.803069,1.2484432071127585,-1.7262257790830262,1.1709334,5.3058267,3.4079076202809473,-0.5379692595318444,2.8420987,1.1912215
FDPGVDKVDYAD,-1.2828153898375176,-0.17269783388271842,19.070335,-12.289226,4.3399202708789755,-0.6210442130839429,8.396851,3.4451554,-5.441029234310248,3.196356831379717,9.756967,1.1013217,0.7842409481624435,-1.2975195249648104,2.6945095,6.6187425,-3.7334660469475702,-0.08698000381121285,13.945292,-0.4134177
SEFSDLEDYASS,1.2909199375013878,-1.2040465538841691,4.3864613,-7.2593455,-4.1528618072965005,-4.038008133161091,0.76935613,2.0653896,8.131514967625204,-3.5434103893372453,-0.7696328,2.1456652,-1.0301357901770698,0.2765093909969029,5.4881697,3.655892,4.426491411621101,-3.2465702038564337,3.046503,-1.3802439
WDDLDYAQRKFQ,0.7568296593977186,-0.3782317183946913,3.9047253,-0.39881766,-2.391935980842617,-0.7803312959616043,3.5711532,2.552553,2.7773224051743504,-3.2164129498878333,2.0405579,3.4234457,0.24604488858964166,0.5372263153024144,4.5505996,7.4452424,2.2774922140933667,-1.239196256717921,2.6382062,1.6292934
DYTYADLPDYAE,-1.4239738923752112,-0.2074753834260171,16.939129,-12.004606,5.217460466362679,-0.37439279025583866,8.623931,1.579045,-7.055048709071,-1.8272392267181994,7.7929926,0.17746218,1.574640920517656,-1.0561588023774253,0.95404863,4.449937,-4.3995450617499445,-1.0291245517520178,13.468262,0.53843755
HLLEHDVQDYAT,-1.3136354994040282,-0.23704165789358075,18.63828,-13.708374,4.188448552959301,-1.1311304042856327,8.81322,2.831082,-5.350743482502415,-0.3558127686032502,7.8301516,0.92832416,0.10159344449874609,1.4773437430326481,3.428022,9.834757,-3.860542733862776,-0.6391871484794401,13.406114,0.20525381
YDDRHDYARVFK,-0.05337184260977226,0.18622384924802166,15.703282,-2.900905,-1.0269773567894243,0.7515730260932463,9.997763,7.6891403,-2.0321605760431605,-0.07003316698618109,6.352738,-3.011056,-0.04488229483003074,0.9818983161765205,6.079769,7.389744,0.04122517895311043,0.16692431485998807,8.506888,-1.1078807
FYMQDKPDYAQV,1.3803755039628929,-1.163372516507162,3.9322798,-6.352095,-4.920270748140901,-4.466938984842884,-0.15749134,3.0703876,5.019841963517396,-3.8892359275379933,-2.0900123,2.524722,0.19728679729724405,-1.0895481229638961,0.2729469,5.1667147,4.6051127513516885,-3.6145949364954797,1.834258,-1.4850546
YVKDKPDYAYKF,0.46317544749513906,1.5647863817670635,10.705094,6.839547,-1.4968939757447766,5.412324218006739,5.0940585,9.290904,2.5743079866989276,5.290983193318547,2.2924101,10.343588,0.03003166223332991,-1.050805516781996,0.23173839,5.132792,1.739979070009335,4.812499019250756,6.8446183,7.82175
LDVADYAETSEY,0.8709329857967092,-0.5193911336548879,3.64114,-0.2812222,-2.3508462936509167,-1.4061130426427866,3.2741282,2.4960284,5.409865963487574,-3.5823743829988683,1.8153367,3.2624288,1.1518231514036161,-0.10838272009507492,2.8815396,5.191493,2.9106799231296074,-1.5967574007416454,2.58948,1.6762547
YMADMPDYAFAP,0.6096902799456163,1.534126944390344,10.930913,6.4626155,-1.9044717566095677,5.3231173758250385,5.1300745,8.8612175,2.12873946770192,7.523486813812626,1.9242891,10.046948,1.4199413887923062,-1.6379791184018173,-0.50000376,5.5215797,1.1574368166116151,5.075646157297401,6.6574917,7.898221
GKKFDFPDYAAT,1.0126667291147344,-1.2876966768533373,3.9535046,-5.624549,-3.381706653723431,-5.070670587432603,0.2131519,3.2632928,6.172815247307836,-6.557057175338101,-1.0281014,2.2519882,0.8230090803113205,-0.9871142710956312,0.07274942,5.992132,3.2302634138055444,-3.215622979260633,1.8873345,-1.2090764
HPMFDMRDYASF,1.2507772061118918,-1.165971095160745,3.878283,-6.171126,-3.856113052630833,-4.011846033909542,0.61669683,2.7077181,6.862077499815785,-5.116730472461013,-1.5377382,1.9503349,-0.4588937251785448,-0.09006870874042733,2.3483186,7.722335,4.089056977698199,-3.1604707239173564,1.9303229,-1.7888017
WSDTEDYSAFAG,-0.33918385793274586,0.3909202797480276,15.052775,-3.024932,1.317544067163055,1.5276150760682503,9.803665,7.1641064,-0.9811383224544745,-1.7450272564990752,6.578047,-3.1044014,-1.051808494717817,-0.3011915085226958,4.563706,4.236938,-1.5647001595870247,0.6853751059434108,8.136626,-1.7202773
WMWFQDLPDYAW,-1.410629646325439,-0.20454520460633996,17.835815,-12.410249,5.398893907963603,-0.4370029491920674,7.8476305,1.8000376,-5.7761302754808925,-3.16917697338203,7.8105164,1.4587772,-0.2776323302405904,-0.962873536293277,0.85563165,4.3072114,-4.4311763771754,-1.2560630356901936,12.729949,0.37360927
WYQDAPDYAAMT,1.0875421331736714,1.3855468104003887,10.84054,6.0777636,-4.424195471814289,4.80112696129775,5.1004763,9.1302805,3.9930415016727427,7.377449465881079,2.3661177,9.570843,1.7585584727245107,-1.0927605921171415,0.8001255,6.115322,3.063542433268763,4.354181965719897,6.2866397,7.8241253
VNGKFEVTDYSD,-0.6924395561940254,-0.012883926163425923,17.339155,-10.48845,2.7104708844658427,-0.4341421989291923,8.079527,3.5100043,-5.697042189485548,0.8227555817921839,8.984972,-0.059831046,-1.825634956443571,-0.6441090194918283,2.1137373,7.036289,-2.579877593399032,0.11212020861255023,13.167183,0.82279575
PFLWLDREDYAY,-1.2386235850142828,-0.15040784759095327,16.91828,-13.952457,4.177929709290192,-1.2411289987768928,9.527144,3.5101664,-5.613325487126639,-0.1706299969593677,9.30212,1.8133754,0.1325809047394636,0.5082139454117982,4.8767824,3.403561,-4.218536678307392,-0.9648774088502129,12.936601,-0.28656197
WSVWDVGDYAAG,1.0384616447304498,-1.257987884699987,3.1884878,-6.933887,-3.479331360098441,-4.449242524206125,0.2727593,2.6747744,6.554607347074429,-6.202323084871372,-1.7341216,2.6271725,0.7583901667527259,-0.769655996526161,3.286878,5.8613997,2.9613888209438586,-3.6727799620918216,2.7177298,-2.0419047
